{"biases":[[0.09116332164746381,-0.7847293823080813,0.7299880743580761,-0.8123167783734314,-0.8092747992670998,0.9988274751629265,0.6869754379943637,-0.5390552552615469,-0.5492587059508257,-0.725319645103646,-0.4070420571299504,0.1997382742249891,-0.8046934012377731,-0.09139923774894387,-0.3271105104015174,0.19031863242718636],[0.23618295434197137,-0.3371307770165041,0.9674355798005978,-0.39397040570206737,-0.8116899298092579,0.11566288141934365,-0.6404645427895529,0.2518129470275835,-0.7857684137945831,0.9819546543796904,0.45588112488190996,0.8405215030086745,0.8088609010334689,-0.9807732923431024,-0.9099264992410016,0.07462431557659335],[0.4155372023998325,0.3318572859490736,0.5343955921755476,0.6131755560543545,-0.5114840276565666,-1.3117649715813138,0.19005036267613984,-0.886606362314467,0.34398031946164176,-0.08280299647011335]],"weights":[[-0.909757667041755,-0.3694545903351518,-0.8798012498297403,0.5772463483892476,0.5493807364886611,0.7714210027958195,0.26764150142423637,0.27076475702204506,-0.9169573226773933,0.613844209741707,-0.5368744841939519,0.33706136283203114,0.17865025232528642,-0.8482743125504482,-0.5766959190258643,-0.006814551404078051,0.8709818928419226,0.6723317107756148,-0.2500842064659844,0.5477328370158632,-0.5368236689035135,-0.2936167784669179,0.15770000470839474,-0.4338178425641057,0.13967747498604366,-0.18684348670380302,-0.9039658149762287,0.37388088455591917,-0.4227056614874809,-0.3789732337059528,-0.9409126671286846,-0.4927141783955854,-0.039027302087675464,0.8809403970920489,0.5832444828271057,-0.5072768837012331,0.12853409413599692,-0.5551928667072477,-0.34799587083587913,-0.0013907631601389747,-0.49095163217697746,-0.26185951020260756,0.24944232820626455,-0.9780235587220872,0.34425503146020864,0.3370156884424538,0.24671382301404976,0.05433688995010999,0.9409295305873602,-0.9563039957804678,0.30496118577009224,-0.5853161471303922,0.026789449055727,-0.8197112424531808,-0.827640140929527,0.3991608482379134,0.02198532888967275,0.19661256179572395,0.5684144134237894,-0.046897753084714555,-0.46896969562994695,-0.22256949597374887,-0.7673161075454555,0.9977843029282838,0.951736414796015,0.9556049021812669,-0.3051886073032464,-0.057145433473924534,0.2788600097417093,0.3764605709127615,-0.8674043608876194,-0.5147939042833476,0.26811939472538304,-0.12478446819707034,0.08100500722626269,-0.8958749599619749,0.1548889345063127,-0.019851380989208578,0.88765247879357,0.7861499161271339,0.0001924890186726369,-0.9372940494113514,0.8767350857055045,-0.3139709442169303,-0.7369745134587165,0.6473508436812498,-0.532244641498403,-0.9641485583369853,0.06526122185735361,-0.7326125899291175,0.7419970837271292,0.06544153569541877,0.555661093345263,0.6547530554674184,0.8285900317939761,-0.0808521576265917,-0.003388919100373644,-0.8629789607365671,-0.24173497834263258,-0.407227303530853,0.6531817908077067,0.20267462314952223,-0.850365481077698,-0.3776244298894613,-0.5699527143850374,0.7546279674774543,0.8852443662776679,0.9870553410862366,0.8477650741895513,0.11793485063371478,0.21025763585548596,-0.3898867734466792,-0.1317743056940509,0.5629682147636519,-0.06893936552558733,-0.23391388325348672,0.047060575286997475,0.3332420395022129,-0.16489802680415777,0.044280248510253584,-0.11650206293734455,-0.9476470498159961,0.8468963774280733,-0.45449545014068793,0.6822503721127469,0.851011613619145,-0.35570937860467244,0.4078515821213671,-0.7296176934057101,0.8918328144357601,0.7224827777306593,-0.555507735709103,0.21090330646091338,-0.2420203700522512,0.17430447420462292,-0.15202241475243627,-0.9827606515992003,-0.035725276319043986,-0.9573354206806439,0.5043022047949162,0.4157175739457031,-0.9177691426351624,0.05641570774243854,0.5686119730284649,0.9253005912673016,0.6650355496274762,-0.8699030743306129,-0.4105929102290713,-0.9769402600833155,0.13145713679098647,-0.40735041972456665,-0.3709479535830147,-0.7459256800712415,-0.9704836769636266,-0.813787298106532,0.07784493225434486,-0.370950313554533,-0.403224560402033,0.627906993172284,0.7704628687948634,0.21066965903604618,0.7334100409758486,-0.4160679361182569,-0.5997585534932508,0.991900603826001,-0.22920781971775606,-0.9873391081035451,-0.6722233234491318,0.2521491270621816,0.0005685482449500068,0.1532971732983861,0.7038104264979645,-0.4471924358550521,0.09589051826513106,0.7553043172469593,0.007779336911184265,0.9009233716391172,0.042090228003162755,0.18642637710475518,-0.9057717417368019,0.6491741139973086,-0.48970883522635267,-0.5532304796092071,-0.42926823610621334,-0.19312921962022722,0.5338038809204493,-0.7688486929797865,0.4340453115947138,-0.7001372332751156,0.8223130705396458,0.13337363296694038,-0.6289768504973465,0.878959308570143,0.6983061561471973,-0.6587359721346484,-0.4687456324461594,0.2366908828801717,-0.3470618455179184,0.9978310525298257,-0.9533509105204114,-0.8038180235759702,0.65603971352248,-0.14136094306667235,-0.48508031268061713,0.5358416846615894,-0.7345700321697086,-0.02215511878213483,0.17309618787933312,0.5672559938368498,-0.4193572148741922,-0.12828344541670667,0.005510002175830531,-0.43494683515023014,-0.9985940404486751,-0.6156343054147286,-0.20169387104742342,-0.6404398347277859,0.6788810014741609,-0.41125034483616973,0.0007071546621362224,0.9473363666436554,-0.8797181521033346,0.9680969317825889,-0.5610541316446055,0.9893093378693665,-0.9035321613621641,-0.561774508759635,-0.17660437308571053,-0.3491713308327916,-0.33201931627933345,-0.4687057764946486,0.5250659876535009,0.24731808608448191,-0.9152787016653385,-0.22696195617506432,0.36406042141014905,-0.6568361731762821,-0.6929100179405147,-0.41654169481263315,0.4826526866275258,-0.4414777704112641,0.15486316993169957,0.08348227230932403,-0.680043790826832,-0.9298943042331411,-0.8285940788564199,0.1331511842309141,-0.21763565933057494,0.10337617097009066,-0.28968874836695835,0.9360941119276862,0.7285237376422011,-0.3490251970005317,-0.8693863122799323,0.7352310770489425,-0.01759276344890115,0.7914478510201801,0.7052569078964734,-0.37390622817270813,-0.8441428014965967,0.47324107690577977,-0.4599092741639188,-0.8973316505190412,0.7335035262090932,-0.4980863015171957,-0.4445983661516709,0.7204215060564862,0.019177557432309866,0.3462381218600854,-0.33849488115099613,0.2611838901243755,-0.7151785164040354,0.6321725988508904,-0.6994776468471042,-0.7199892284715919,-0.4545893209414972,0.3353222482248741,-0.5011384473733597,0.9592070173274401,0.5032385463532103,0.12397533044844611,0.25192196117708665,0.03883652949659111,-0.2527469342042138,-0.5916972833389963,-0.2547640933168426,-0.7317372933498949,-0.21426968150029269,-0.01865104117417149,0.02755653805373237,0.577580949323447,0.836660266859768,-0.03317326188554015,0.520106834401894,-0.1117919318500723,0.6596735145924826,-0.9116256902036591,-0.02328623152420295,-0.45173409161173994,-0.6076945807785896,-0.44090898467904627,-0.543687062125399,-0.6944030403242987,-0.8800971468585093,0.5247380554549201,-0.5144970777946041,-0.2830035013297405,0.30787375803052974,-0.777391716301785,0.8396055038641079,0.9548797143192453,-0.23340625421807648,-0.6998547188867306,0.27117402488463505,0.2648617078296924,0.5752924535565151,-0.06646661549458643,0.545512415344497,-0.9953730467328787,0.8243398585968398,-0.7047662629260175,0.42911231966115615,-0.7970900595641537,-0.9906357494304506,0.08862650777080883,-0.5981039415126712,-0.1167961220009236,-0.6512209110553259,0.8537001646053128,0.37000291770338256,-0.7437066698193054,-0.5720634630390443,-0.07453051244428988,-0.4972573284594165,-0.03382636491113422,-0.41342717129570694,0.8616851789947875,-0.6327719780655046,-0.7783634452846825,0.8192219213578291,0.8540448671303069,-0.5107891513603142,-0.10205974365315085,0.18846200900154608,0.38854927076451684,0.8227245800957814,0.8117048998443921,-0.807556479697057,0.5571171655041098,-0.6008431997558534,0.2668725022835381,0.1833271505618579,0.1683502357958,-0.9882674551474934,-0.06647273707816581,0.6509732611948715,-0.3984139852389015,-0.3401504384240347,-0.1726548778620116,-0.4135374040379608,-0.27646521839889815,-0.6453083931058985,0.8556748912624033,0.31231035128248696,0.22878344068,0.2541510841956889,0.9916284373632436,-0.32239833172849675,-0.1884189185665769,-0.6705028394853209,0.3843745584483047,0.49288899510188755,-0.17327742465811413,-0.014146017595746407,-0.9467215158320207,-0.6847235747665408,-0.37889871392653607,-0.1583601499299777,0.5266521814148069,-0.4972910916983492,0.539767096813665,-0.7861123172359918,0.6765294593568258,0.6682351066248731,0.7235555114456329,0.3451788983766948,0.7491523054949194,0.38762295493520216,-0.6839446840482983,-0.8100795919300419,0.20707058186425864,-0.8171329842795759,0.9832758960596721,-0.22416016660288773,0.2683423785062542,0.8382831579919201,-0.6875636500802913,-0.06401159784626498,0.2307966975508522,-0.303166421842439,-0.00043008571710845267,-0.5590344044098527,-0.6085884171972029,-0.28923754025283455,0.38306747788517637,-0.39779465057451446,-0.7020229306120354,-0.9049419509777626,0.4722553836715222,0.9428183301599262,0.42588087464292124,0.05467009017508917,0.8872772167794551,0.3777047527401216,0.427937542789385,0.6697576030412646,0.16618103360888914,-0.3322930697158347,-0.5222983915913071,0.7125067213087806,0.15943036208895878,0.23372321450487465,-0.5513941214163735,0.7964564151277149,0.912832703410928,0.9876479430661473,-0.6576054093385872,0.6708144679501211,0.627918949492076,-0.33395450084063594,-0.25185572364972675,0.22443662134064768,0.5249806514931787,-0.45296996417868707,0.7474732155619257,0.960652158087038,0.6026054456229166,0.7321078559100709,-0.004776106912975586,0.5515827407895613,0.7947801070553864,-0.5487521975628233,-0.3470527097086803,0.8641954119672641,-0.5127385502331001,-0.4018428147731594,0.9794675316031201,-0.9388274935251378,-0.38319562880897207,-0.4245108105936666,0.05406830581980948,-0.1035378015450813,0.899244325943948,0.36343600218991967,-0.9956076315339625,0.43179517793781064,-0.34805394019820246,0.6703905992771604,0.654179051068901,-0.038378081746082926,-0.875585276196184,-0.37441505628599125,0.8210526529650559,-0.025955406808928605,-0.7144249059726439,0.04721255223737364,-0.496227611604925,0.07007305989395762,0.857108691772122,-0.8842612341806145,-0.8795006775614203,-0.11179652885852331,0.23306120337842273,0.7994644651861418,0.0850136917277351,-0.3088406157304644,-0.6046975389535278,-0.16477989039249175,0.4722871869420018,0.16509865930781742,-0.9435958211002711,0.8852894991031421,-0.10600396246854771,0.3076725737182182,0.4947894715974599,0.034584516005958355,-0.5915000673923674,-0.10963439075368286,-0.06506378192763451,-0.7987522506482126,-0.9293138071189802,-0.2543944890876425,-0.7964782872394388,0.10730762135237115,-0.631970011501052,-0.9874158225447152,-0.5600105418083706,-0.6198479232677183,-0.5179308461327142,0.46516078541833994,-0.4126025680036596,-0.9170842740576549,-0.5084369796688881,-0.8754247403909327,0.22644361180725325,-0.5704106764507993,-0.9308826545308326,-0.04450208676430245,0.9200411055629492,-0.9448840442429951,0.8563927980441839,-0.1405381828620894,-0.5399543410890044,-0.7659301560636312,-0.8495502655176574,0.9243543395459892,0.7109373039274849,-0.3456751862309031,0.3680466829225679,0.779665324876641,-0.8363924254592565,0.7645888060877268,0.6214137061624907,0.2515399577841888,-0.4480478584752312,0.2219012468483903,-0.3850609618454892,0.5479922778863446,-0.8563410006740428,-0.309890770925507,-0.2536123713365227,-0.10284172030889371,-0.12774617564194002,0.6346092219461499,-0.036512479557328725,0.6727618318829829,-0.05873173200902526,0.02519927901249619,0.29389378594465265,-0.0015571299763122992,-0.8996153872273863,-0.30454832253652875,-0.7073159709390536,0.6844889489872619,0.8586717905951042,0.7420483101965043,-0.26417411979013505,0.594704492878759,0.9064676218073038,0.9947913053716981,0.4133936469410264,-0.13854446374281493,-0.6988629739180903,-0.18559281029815422,0.9005555387855397,-0.9063090520241025,0.987084912442058,-0.2727670834249708,-0.11446952861958681,-0.6451306897651365,-0.46245981710768347,-0.7699533705949553,-0.12351849109210211,-0.2016712152277148,0.8876279761611066,0.8454860914175184,0.6757088542327849,0.8469737666124815,-0.3515165352996995,-0.291172111538192,-0.3658366296659268,-0.3825353364384151,0.7560972877005665,0.9305719662362173,0.7225097623379042,0.8261777232040108,0.6946049221972526,0.605503594024281,-0.0843744295532538,0.6120502951802831,0.007897995329178675,-0.07610722208169796,0.2351268750863127,-0.620066642522314,0.9089600399750493,-0.08136007676899792,0.4952459360964492,0.5561730888867757,0.07909867317707375,0.3902143615215523,-0.8692131314418119,0.7130570300658845,0.23762823069157846,-0.4936262841043684,0.9191576287114964,0.8582716673893174,0.927913130960877,0.1813228078454603,-0.6560235788237546,-0.2398175410651714,0.30047845479555413,-0.7407505065379909,-0.08387150230008922,-0.015447951204416666,0.9126949170233085,0.08746598991400711,0.9649987990781086,-0.2134094946992524,-0.5021984568930414,0.6757466901455336,-0.3534363874967136,-0.5340951306493458,-0.15397624811787602,-0.09878397512879844,-0.4977705733702237,0.5300315879859427,-0.4644087056156738,0.56545086102881,-0.6683652002876534,-0.7769507615840431,0.49801444578613285,0.34607192966690326,0.31036815293053555,-0.40822282920366815,-0.30647009279247817,-0.17916026228697368,-0.33421387698419536,-0.06199616913106354,0.05676916609704197,0.8406974954682123,0.6485291190664417,-0.7255827376901194,-0.6148591730489181,0.1419941576977226,0.9048861829136328,-0.612307627070692,0.5191393727392402,-0.19829695980198847,-0.5856321937897,0.6169755459602257,-0.8874131246893503,0.42002064300801,0.8997949210827576,-0.657927071873292,0.33998415775520385,0.8907738363558797,0.9861936013047281,0.007750112007377519,0.1465174230923001,-0.06515322568637094,-0.4906693035874551,0.8741746525811795,-0.42297376691795496,0.4942232390862038,-0.9951362742549612,0.6590422492196757,0.6640267200110384,-0.583056453912459,-0.846944859755349,-0.10907293592746614,0.19513477305603066,-0.21579932721477457,-0.33279172266383605,0.9052992836344642,0.6663646415350601,-0.8554906332730436,-0.5841286013598435,0.6147308339979531,-0.5108343088658378,0.5707852613933699,0.19842723274437368,-0.2858266628933944,-0.49422347191685856,0.5776687986578584,-0.5433196427790647,-0.2298697353836393,0.7938377966914005,0.18566776221126657,0.35895811269601996,0.37408146118022145,-0.670548873831091,0.09158549575362906,0.40535986477389296,-0.35857974611795207,-0.06309999225772867,-0.818583383752346,0.36609371894679366,0.18101483342495883,0.041019365315332124,-0.6854731637468603,0.5866862693873105,0.29369835674046985,0.6277416717657514,0.7423880878874853,0.5612670464309739,0.4117777747217979,0.3991350706247834,-0.41371122143509187,0.041565793251079786,0.9282584635256235,-0.9388726626721942,0.21826195889117384,0.7637348740494005,-0.2633948956583948,0.31145933800925096,-0.5761446952442864,0.7942075508635424,-0.7836716745523057,-0.07637677665016829,-0.01873460549320971,0.8452296093589997,-0.8604187972301407,-0.2487550828934314,-0.914373193911655,0.8024494170466157,0.3041413205818728,0.6144047397645624,0.6948682150180892,-0.06659874595993631,-0.8781059176302587,-0.9437507978408053,0.33015575554976184,-0.9966562276949397,-0.9189953578522043,0.07117582643511056,-0.23044537704732226,0.7813961833087744,-0.3298234582420623,-0.00291704121202796,0.02296810754979184,0.6074725506720811,0.9944220955576275,0.7134795785890318,-0.563805357383451,-0.6284619054570971,-0.10675539081104124,-0.7618541159819943,-0.6831669686592019,-0.005759944486913304,-0.980618785128162,0.4378477323503067,0.5180792807975065,0.14539039978785517,-0.09266897087803705,0.47505566450105485,0.6262795525291347,0.15062323848941217,0.9327376284658506,-0.5853023756628144,-0.6778417325092201,0.9479777196374177,-0.1264160997920084,0.6071852157578164,-0.40513428865650947,-0.08777688868753442,-0.30199184241106336,-0.47075303409170144,-0.7056918485983983,-0.4659101369113914,0.30822086476486654,-0.8776186636054614,0.10323249163859494,0.5465806386640233,-0.3427543075040206,0.8471483290677082,0.36445390940793176,-0.30221143990288934,-0.996550469026551,0.7314063599641722,-0.51247749584618,-0.8071172744688562,0.6438510501573373,0.23474708218765294,-0.02787487623234597,0.2738675174686229,-0.6310672823484043,0.7708017263390963,-0.4108709603224787,0.9669005947921716,-0.8146052755038015,0.8005678217201744,0.19687844183079806,0.9905613777313305,-0.3457481274184795,-0.38691930530574525,-0.04173138800080123,0.1364280121347463,0.28051034415749654,0.8387939120803807,0.7112539065863968,-0.041567047276987124,-0.7733601068283669,0.8474039314920125,-0.610824275540991,0.3787270916568197,0.9074770325690562,-0.1625866498374433,-0.6706187975333793,0.5207296293954746,0.2696874672768157,-0.2511503939142641,0.6590239794638446,0.7372974612186367,-0.9553397238977864,-0.15937703176178553,-0.2323374516158806,0.764535896718378,-0.29997137011821495,0.22002107597989595,0.909177414399782,0.8831102377006157,0.8108362617562392,0.6378415768665842,0.591470245976423,0.28293802236465493,0.9739804562618806,0.38848978253218247,-0.9379538910217605,-0.06389753271143106,0.4347613589908843,-0.8761732103871246,0.1366446661814329,-0.5545724582278801,0.358514293695561,-0.19649310523424424,0.7638951407024148,-0.7188590079365935,-0.2031959118937956,-0.3527817473231356,0.12584252100792837,0.35234575003569857,-0.8504462672613616,-0.14471033869771055,0.4012186926448458,-0.0949153242964268,-0.33437869501085216,-0.09261608851704417,0.8426100577374205,0.280804143847726,-0.4203076785020523,-0.36838466874882836,-0.47402931391217207,-0.9852864884165091,-0.4715721002051133,0.0022757506168811226,0.7067939189758934,-0.42340861355629544,-0.20311308890756274,-0.5270509514088271,-0.14990390771534579,-0.3716322060906092,0.04647923066925275,0.30877855518505437,0.35373764009620756,0.7602768293902233,-0.3193063653110815,0.9653068186677571,0.9639158864725625,0.19851453585806866,0.5791054192124698,0.8125257741206702,0.8528298389605729,0.5443651027111203,-0.6383199912427362,-0.4635098186344938,-0.05536307755753389,-0.9266357246647194,-0.4910817230457901,0.7806627658144236,-0.8528039686808422,0.03495680523827116,-0.5690682838592219,0.32993437131548986,0.8574820520254476,-0.7983642085594487,0.31455302877049673,0.8662383160967311,-0.5633702131875334,0.1091080905623929,-0.15907168506805558,0.38036928258762037,0.6608009206705243,-0.9208564836387868,0.1955156751599305,-0.8475235333398206,0.43985217192425674,-0.44972941501618313,-0.4310132445885694,-0.7602783493087386,0.007524996429029818,0.24179711292819128,-0.5514792619989455,0.2347052513665271,0.9758577283887211,0.946013579790207,-0.9066178981625761,-0.12807845246054184,-0.8026839897405054,-0.8754559983720183,0.28617506928844727,0.48656546399128087,0.02541438147569819,-0.6927400264167053,0.3456368059600834,-0.6679895326825378,-0.9484458121649756,0.8573007612299544,0.5139419792452669,0.5547837157256468,-0.5360890388271119,-0.9855457593206125,0.6018964879201889,-0.7306496789621033,-0.6150123602530385,0.5443568646968875,-0.27445504513723984,0.20613030178358382,-0.45749028100585054,0.8587451392363268,0.22158892035728694,0.3308370990711538,-0.7371487876695925,-0.6670192630821854,-0.6977817758774871,-0.8704895477420245,0.26406159133762386,0.7491727736377944,-0.9598300581901921,0.8248008903019564,-0.11473402331226423,-0.557827013551262,0.07268872510624469,0.02252896472020649,0.7608800205083204,0.19023659023670736,0.7582016889252587,-0.4006978169421539,0.14219839302293646,-0.6437221755958658,0.17190167767823428,-0.5612436083002645,-0.47740124661928485,0.4438288878454848,0.4432565221091167,0.3503062540813586,0.07964862058100142,0.4325743396709354,0.33473123321870735,-0.9814333352581909,0.8421965518912495,-0.04265191426305048,-0.8951832727059071,0.6697699630894123,-0.896600527337964,0.923253268012004,0.5341328915906236,0.12092034731792123,-0.11550301174275257,-0.4846200008878857,0.035830853379521965,0.6000772702545096,0.8145740328895392,0.876899623869714,-0.21556390841428485,-0.7277985474518728,-0.5591650126283807,-0.6838899646534381,-0.8574005431354309,0.9444824807467769,-0.6551613850224689,-0.3728922162115529,0.8672960136080095,-0.3519848541386541,0.5234245720487813,-0.8690649170348195,-0.8584425669526807,-0.4667099469983179,-0.9116194508077683,0.12987135886523005,0.3654268272241532,-0.14841883463578232,-0.5657852594003393,-0.8791509766279262,0.6930445968530319,0.9456165555604372,0.989521728786761,0.10974040972674404,0.440478903618551,-0.4140955061027466,-0.7793067479729194,0.12211955464465252,-0.7311351862913273,0.8417758818458263,-0.11179260985293948,0.10044444978526923,-0.06495092285559312,0.21095341394616063,0.8517289583477248,0.7385117322230808,0.008555643209157138,-0.7640949010224406,-0.563792384990681,0.9729073258034708,-0.8206325221554294,-0.7600468108639439,0.5675567658738718,0.4993495451902752,0.352279990276843,0.12691357228858946,-0.4052654910588688,0.5710383972097159,-0.3978588000765606,-0.5947101446100767,0.6541895060966298,-0.16519820931396145,-0.45506226845387177,0.1318903685159043,0.7954202577116467,-0.6339686084225472,0.16703587461809222,-0.0926129872127206,0.7754875042711855,-0.10807266470024224,0.9387334993240817,0.825053027740454,-0.5231752476702564,-0.6089478881706392,-0.18410836958664945,-0.07906398886007004,0.9062102601145707,0.1151393684439801,-0.6038033379221088,-0.8121476869393882,-0.5977320164275028,0.6641009371106037,0.9196319359548957,-0.5677774427686137,-0.2713399395436764,0.4361975441521708,-0.09152630647585525,-0.3406233305227133,-0.6531637003314796,-0.6355306338962101,0.6952833530071514,-0.7882360489929789,0.9968330895857149,-0.501738263843944,0.7457300515640182,0.2627810842028042,0.7858475543224002,0.20655546313234074,0.653486969863365,-0.1490499044308392,-0.7243692066214966,0.08869205891339771,-0.33381272140728446,-0.6019519789158394,0.7537288122753598,0.5541473578807552,0.06632866426286355,-0.8177795838793165,-0.7529812917625784,0.6240920037522766,-0.7471878317685492,-0.6358726639909469,-0.018642098614377045,0.0484821987534636,-0.2926860719171126,-0.8993474084567886,0.7500755596011219,-0.529654338063696,0.9749292137067014,0.5941275576079572,0.46386902324966095,0.18786775625229213,-0.5441224340296971,0.20396363884779567,-0.07353153901513665,0.7881799931501596,0.27519924082826885,-0.005864197672287186,-0.8937170495961668,-0.04347064742862583,0.37322776104122757,0.9760319453232562,-0.4425365002936664,-0.6935588257061867,0.24346888173407133,0.7316509732472252,-0.4507896843748759,0.9212180947916033,0.9343138612660775,-0.2016824060003134,0.3969932930950555,0.4991710539505769,0.23048732242113057,-0.06400373562070927,0.93225350880733,0.9479278454484867,0.23589933921281792,-0.09429051718032622,0.0034585806353448767,-0.5644708078843373,-0.8980099253324011,-0.9979055434382411,0.9392602963759895,-0.6176453718147793,0.7537822944081198,-0.5149177203660099,-0.20310577290272347,-0.7655713533141747,0.8436295733495969,0.7343304061192846,-0.13208208546812494,0.46687698669508415,0.8909271022567613,0.9427027292740924,0.431972279178499,0.9943057063071961,0.5886408617806853,0.739792220731448,-0.9680740161238693,0.4525241731025811,0.3825476881046592,-0.8997034265516123,-0.9825531571104789,0.4730064134079346,0.28334452140509647,-0.42449290871027034,0.4663528020031247,0.7019871091501133,-0.27272210240508354,0.6654278874418236,-0.07054336058744659,-0.6653587427909062,0.983952057702008,0.9659105420367311,0.6060177181036412,-0.08157537946656312,-0.24885367596558394,-0.6305432536529835,-0.5659805652042751,-0.2378717953053613,0.6386260960330787,0.1847172352534685,0.738040981700766,-0.936912046484115,0.7167872761124172,0.36348976697909463,-0.008775146637398312,0.8247990216031198,0.30815256528922697,0.45950927528970165,0.7028281130334941,-0.2914469145752857,-0.14994128402038165,0.6528671723316359,0.918800270443423,-0.7529012543623012,-0.8705694063283588,0.33422650618458016,-0.23645705571003894,0.8274762421831571,0.6143068191073413,-0.23737984601757667,0.025273386681653687,0.3040335730740298,-0.9398921251989812,-0.9941053699641295,0.12697110427776126,0.0195353632009021,0.3517622205350879,0.0007995954170627595,-0.1701127298603411,0.7376738352319594,-0.10739494448950238,0.4267249095157677,0.3494137159264772,-0.7886542060000659,-0.8703567639538569,0.9345795135927712,-0.8207997453227516,-0.3642734260691498,-0.616431959955452,0.6420042490439686,0.3585075434692133,-0.5355635889333734,0.7740933632039046,-0.8160647013554019,-0.40004542917233166,0.9240190731817781,-0.1735177589793907,-0.07137973114079421,-0.09881264403300116,0.6010614672128546,0.23233464321252106,0.0023982586569242237,0.019967136940258756,-0.7205810653699705,0.3243365170112802,0.23550329147481475,0.3006242258776537,0.8982027524211846,0.5632980086761494,-0.6222910274370884,-0.7570689123753304,0.28380341851876856,-0.9612904949924962,0.5121752350899507,0.9638191080825347,0.7760430000296199,0.6923246569939725,0.3530379001591084,0.41535545615338143,-0.2336924650259391,0.497358623298489,-0.9512893445482905,0.21010242581863547,0.03614634171091935,0.07678748247488332,-0.6495324566733909,0.2101258648806672,-0.5712011216231233,-0.078991625092518,0.3597823439246808,-0.6985005017575119,0.7338105395046512,0.6642188886547298,0.7358254764815093,0.9172194615895042,0.07550674995998952,0.15488856616821667,-0.8437852462537891,0.1886449617422541,-0.4985680663264723,-0.31628605811565647,-0.024157231446519378,0.2619881416888754,-0.681597704014816,0.9022884037522574,-0.9684787125893803,-0.4151508864833471,-0.12197502129031434,-0.5828291916354726,0.416500260269282,-0.43612680228296075,-0.06387990417122369,-0.4158073273692102,-0.3148759797900458,-0.3879076900623737,-0.09186178052501048,0.7356396100979856,0.8812558132459434,0.8227147178548999,-0.6262427024213788,-0.5856092930321426,0.2585686696186391,-0.9222826133097484,0.5583169493195428,-0.9925446259903913,-0.48805447842817085,0.78663644092632,-0.31187539800770636,-0.7911146405506518,-0.6715029370208762,-0.5564887825748107,-0.8705333222334578,-0.5364492017732546,-0.3871109430955434,-0.9242949053303665,-0.5560065856318385,0.8672031244212415,0.5220208760770837,-0.08021836138456562,0.021152959763961032,-0.10943598597372994,0.7760287656947003,-0.019495116093890652,0.2332332172693008,-0.9661963914914171,0.8665122120255933,0.3560218662145893,0.7218797863812643,-0.21348793441557556,0.13710002380348874,0.8276999453458911,0.8106167895273055,-0.12610935145773572,0.0722490504914437,0.7073589398364211,-0.8681772301394641,0.7972320117578513,-0.21161618503186996,-0.9780938381896164,0.5976954070666445,0.606652062429029,-0.3669984700008485,-0.0824623790458251,-0.11131519711426474,0.2984670740741193,0.9280931151107346,-0.5877729980872906,0.8745056511594858,-0.8742625037782361,0.04378066377397127,-0.4776808808924684,-0.9183073339536613,0.2890533916938831,-0.6199424133980698,0.8730168658279602,0.6757755783762134,0.5726369300644105,0.06580790031888606,-0.6115474917930267,0.036254353714386456,0.8066182550454042,0.7717018659491997,0.7023833040370904,-0.3895889145868118,-0.8482897864757747,-0.4940317060702002,0.5216610325745994,0.9399123241896192,0.12480188113609136,0.7856290003775694,0.6198452089279434,-0.2174562581886773,-0.4426076864037659,-0.7361647438076946,-0.3769405201085908,-0.8051574429200841,-0.9536363655599682,-0.47414439605130676,0.2063363266452114,-0.49123498894667195,-0.43645377754754977,-0.818621588468852,0.40049793042791304,0.027059055778264174,-0.44587812170913654,-0.007470172260374608,-0.7668758103414831,0.09260517062197349,0.3847068133808249,0.15323212832964095,-0.5001427419552789,-0.18791319734555312,-0.671045238985077,-0.2790402276535442,0.9229302424866452,-0.22885648524438695,0.3464418151555346,0.22806252200086718,-0.3512371082457989,-0.8633354742950244,-0.8021934202071818,0.5860625556439656,0.2675470383022409,0.212273869699092,0.8814049799303143,-0.14646487228215976,-0.40259078185513675,0.10367878143796405,0.9054563153383588,-0.10571934096273561,0.20164284434675062,-0.3166217771026607,0.7369288022818956,-0.986704232924264,-0.3289854159646123,-0.21341077619917714,0.8008230180878166,-0.9505320120860493,0.05352903277008769,0.3517474888738892,0.7631940480192105,0.13592661551030738,-0.6653442467543305,-0.9850727633794618,0.03410313210763305,0.6046844664435762,0.8656147192343748,0.14510640692481136,0.7214171644427745,-0.8509286746832458,-0.5257795796175841,0.8092497140923378,-0.7062426164975539,-0.6927654603717885,-0.5651303170125712,0.3256556484234463,-0.41921314531851883,-0.9570818201343106,-0.40966223627555765,0.41046734838215837,-0.9370042520800802,0.5082121914504414,0.7709770557385005,-0.8838967210265151,0.841399391417176,0.007867401846782363,0.722355464997221,-0.9557270358296166,-0.35408121758347677,0.9262334244923092,-0.37408339739994756,0.9620953938262171,0.7500003804452904,-0.5065027180483017,0.7769632753004232,0.2590341991463476,-0.0683149169686954,0.9117428962240282,-0.7360282668596785,-0.5609136681701157,-0.34245176595402116,-0.050258374878610845,-0.5215953813148289,0.33629082188673576,-0.2374705908340129,0.6460970231304368,0.37398649235004355,-0.17460180779853274,0.7257233841695041,-0.9974053836102411,-0.8110422852208827,-0.37099775466312024,-0.09974914201251728,-0.8843108652943419,-0.35487584951663775,-0.39674776199356054,-0.804447538062252,-0.21179594426731485,-0.08325814067332371,0.7146111146172305,-0.4627096593015848,-0.22303373887925815,-0.16637910870063455,0.7779824635526988,0.9536289429186893,-0.27252458750389374,0.057424612330347236,-0.8633179738116773,-0.8272666218856949,0.8316656292850273,0.9612214616346324,-0.7328208867522759,0.2074544642005416,0.3514014866881794,-0.3641286324101396,0.3803010348003859,0.8369512823610259,-0.6599527046247764,-0.5901985128320033,0.5534717880939442,-0.7130751782841136,0.146433786595759,0.802664849198025,-0.04150327868589232,0.19953796488789322,-0.07482740505693941,-0.5347713421174416,0.8860592107056446,-0.190329498515589,-0.4037855099857286,0.5886719218557144,-0.23433703341104617,-0.3807923740718545,0.3511927330512761,0.18910311240084643,-0.4123329831672041,0.036141996625237205,-0.04803102742658305,-0.40208896892948665,0.8491222198627475,-0.5371734140748321,-0.04149475708392192,0.7327282522822445,0.12622675212453238,-0.10000218376527858,0.6503665799452572,0.6583299964975193,-0.8062374763417511,0.8743233657114349,-0.3315460195209765,-0.5073580880487529,0.6266943743341673,0.98156647853689,0.37424258139041666,0.49609050042620506,0.36746538393963135,0.2532379805747187,-0.7926684731792292,-0.22529553362668275,-0.38622899501017083,-0.7440300096660484,0.46627684286459914,0.8975257125416187,0.49324534661020913,0.9842258390781877,-0.07967957821054195,-0.965474023674288,0.5618841654788487,-0.7101128547693308,0.49473875782118704,0.8364176731498159,-0.0123709697679526,0.7856788815514204,-0.4566028087803591,0.8124629606009219,0.03890496308268809,-0.745508509470562,-0.2264291134423705,-0.9810280040963145,-0.29711297149758265,0.415185112589622,0.18071545231826946,0.7522773203611568,0.9458056201058369,0.12315525943792771,0.6650757003425962,-0.017776304785504737,0.13872451681054665,-0.18566911775133954,-0.7535474250879755,-0.6640108297845005,0.032308924179583975,-0.9797981972335896,0.5195652372365747,0.2887392225809766,0.8685433707798416,0.3144411918250305,-0.5692571560865007,-0.15702852668751344,0.11779218784085832,-0.30709256927372286,-0.6212208921122238,-0.2052214272986298,-0.2288898172809467,0.12965573160173194,0.28893337261354124,0.9229688676953143,-0.21471536593995888,0.21820789654442185,0.10418565097977783,-0.21164273564277414,-0.3829835284642348,0.9624374034318564,-0.4716854351830134,-0.1826679315406199,-0.05101395785131091,0.004403556910329565,0.21213344673713608,-0.03753071786053219,0.30746734094647854,-0.1233302689280118,0.07870904644287235,0.6929185740014221,0.6600960579933555,0.7922282048462581,0.42609757153044825,-0.2703748071188944,-0.7914623205140612,0.7484326385133875,-0.7943765719491818,0.6704626687467647,0.9849760241049841,0.9968738768598455,-0.10153965631505668,-0.6823310623701804,0.8199780286651641,0.8645640755606183,-0.24507648427409778,-0.26087451452899224,-0.9808093169723493,0.1867861842856573,0.24323498378341957,-0.3589660131058028,0.6532277947755016,0.3589344384750266,0.2579617778901129,-0.34749310749549556,-0.7520889841100453,-0.3518907621487226,-0.5425126712868538,-0.7278055584485541,-0.26679823396122837,0.20127128853100085,-0.548948388123248,0.4731786969167109,0.2569509352198325,0.20556654146822195,0.9365069583974426,-0.9153720043593498,-0.46489560245694833,-0.4641132863554087,-0.18078585332340025,0.9162853887740898,0.08867552328028472,0.6916303685538279,-0.7106370524998071,-0.9989944695939426,0.3584150347277355,-0.30605818090497083,0.44403112408669543,-0.1951463521901613,0.9750656277904406,-0.2010529629233324,0.7468534641306663,0.5852779507957899,-0.2801966940788029,0.9895516521825325,0.6841055635115965,-0.3180266120819224,0.8509050302645766,0.463491119073274,-0.31132386316437355,-0.2784668328056813,-0.2395607833351574,0.45530776276812324,0.12705648886685972,0.5601322391320733,-0.2238507123107435,0.6429375196317678,-0.2698373473543133,-0.20642812059657856,0.8924119064764598,-0.16756827031592836,-0.359534106399653,-0.038169676423839394,0.8347977464175624,-0.2408101498355416,-0.3095785603840696,0.27889560116694434,0.3601200596673817,0.7869758814785126,-0.8226621554032267,0.9442352220418226,0.6668982800829324,0.6550829023615634,-0.8902170269668898,-0.6231732022995189,-0.3944284743347998,-0.09618327394270354,0.6734264949505944,-0.0749831049694879,-0.5055264940367803,-0.5719226079433929,0.3800942779191794,-0.3643844015411929,-0.10277245877698782,0.9554529354754395,0.2468013100639621,-0.12430212969305987,0.7786079021055354,0.22488256690657785,0.9133472987395337,0.00805662192305956,-0.34522535598886506,0.9098471787870428,-0.39784449449546044,0.4369072217672836,0.16575921943362748,-0.8170710774023979,-0.9945168380764086,-0.9772173150585036,0.47437277358713037,0.27987433835255526,-0.3562429878158824,-0.3823056983574259,-0.2831694145917981,-0.7337450521576616,0.9039627555814231,0.4182877598805015,-0.7199035141942862,-0.04080299485638328,0.6080320622936519,0.43366089467924707,0.7013288507881579,-0.19917888367297298,0.6022060190464493,-0.18808400983025175,0.025623685989931033,-0.38969117148215027,0.14441031404709115,-0.15443588283906307,0.39072702342439936,-0.12037531357213505,0.834995380993709,-0.34505529975786386,-0.6041680862351697,-0.7871128394546617,0.06984337757514392,0.9117162920620734,0.6351124323213908,0.7268800230675949,-0.3603379891603956,-0.6964409283501359,-0.5994646397160005,-0.8248187162825589,0.16949178167951562,0.6803969558148104,0.5489559029654667,-0.7952827786604916,0.49636874376905604,-0.8720584761789448,0.08835893738517986,0.3175215916811702,-0.16475068644344393,-0.9505182755430698,0.8468287266186383,-0.46692362686621824,0.7756510622183377,-0.5830802426861343,-0.917268163243257,-0.8014931508131733,-0.18162489677266647,0.2609990244470066,-0.1685695822961798,0.9378023038299008,-0.8917895633476388,-0.4444782911919719,0.09912523176009969,-0.9168402135145768,0.15892005503535556,-0.9647763638462601,-0.9977543455392364,-0.33877751987095084,-0.6768514860386748,-0.9551248454176746,-0.753471675031378,-0.8499137602704722,0.32420904921262594,0.18247655219284886,0.34364834229435215,0.40152506379345754,0.4015002705883368,-0.7480577783649829,-0.9466425396738686,0.19149871073470748,-0.8937543071575687,0.598347918702375,-0.5382058452690988,-0.40639744245695597,-0.28645021086131306,0.30454428664995636,-0.7139989711604514,0.04925062047413764,0.7731006370868845,0.2701087394223125,-0.52219687463179,-0.5813703390129447,-0.34581384014554284,0.23485942437564034,0.7396124153955335,0.8231359117692967,-0.03805585715817705,0.15904065898630249,-0.3076527980137108,0.8524746562621393,-0.774298052083234,0.9463615112107235,0.01634366144414101,-0.829300174139076,-0.14172883459357477,0.9488282639897148,-0.24099556545891732,0.07416992993730731,-0.26822045533681627,0.7721687817506275,0.9309109793113275,-0.9508789865725742,0.368893813046141,0.5169407654375955,0.5527751746068794,0.557387782246028,-0.7707218239805985,-0.35669228066503866,0.4568810791315663,-0.12836938134879594,0.11116715453629578,0.7920218679915529,-0.9610945014068056,0.2033440932388353,-0.6340635227703519,0.73826740765004,0.812955271241883,0.9703700500160855,-0.7965901782016169,0.8408272897107707,-0.4721470983248661,-0.0557345691120229,0.6711121954934991,-0.5428508620040908,-0.5625131686690121,-0.5312322519012513,0.5880380078013767,0.06964322516829502,-0.26200135529420376,-0.3064810414211956,-0.22377731384376087,0.16766287406763958,-0.5393201988606251,0.6033341538844408,-0.3978787573889786,0.6790195347825214,-0.15193633725930888,0.6114888939051168,-0.7283916267346261,0.5996169547364878,-0.20527327821982133,0.12606287240541492,0.017514031297275467,0.9407423496419587,-0.8358804704302777,-0.17880666237133214,-0.5601795726728978,-0.8818552162092842,-0.7663829292654174,-0.7455803819654321,0.3320735108738977,-0.8839358314542689,-0.704326312639721,-0.7909509526839941,-0.24137148405547915,-0.4174589907823759,-0.5153037852568523,0.23026540221069114,0.9472218358475115,0.9762793339477158,-0.8090577605841714,0.06272775937043473,0.19804578441975718,0.9888767250083292,-0.1629590415152442,-0.5229936611798316,0.12876296946376042,0.6769809501273647,0.33975158414531736,-0.04865071087129125,0.4038910055554774,-0.6472145450815152,0.6937924293588908,-0.1637011477839757,-0.3822727383842527,0.3719582211615775,0.20223334386584724,-0.5838782944359548,0.4768647572928737,-0.5142887842310748,-0.8203753616283822,0.6225825113936241,-0.945544022292168,0.3078551567238461,0.9870769598782083,-0.7711157524939805,0.1606646928513089,0.489364454473324,0.8611555735395198,-0.5601409740069234,0.8503161605600644,-0.7829261717499801,-0.07065686739437005,0.8616933187544837,-0.39520819583053335,-0.9098915949597609,-0.328306614488311,0.9082821907761265,-0.1452602996058161,-0.3875305803041813,0.3313964020764577,-0.18076387969751062,0.4870190679328439,0.8507683479599228,-0.08658964606249842,-0.9485183757012295,-0.9440683145928684,0.7587510244502254,-0.8153005753603111,-0.919513125731314,-0.09496253629964946,-0.2809165922064918,-0.3110104623926282,-0.12234638758191096,-0.3918191160770077,-0.7354436230315533,-0.4114125044024085,-0.7971718189799548,-0.6767224992528278,0.0023627524477087825,-0.9127605477939811,0.8328230206917946,0.3820761589966346,-0.4208202808002518,0.7159388253733694,-0.7728920077815506,0.25679099685804174,-0.7307025119629973,-0.8958106484097929,0.1896986303518795,-0.2872565499854651,0.5604266916794591,-0.2007450474786967,-0.3702757398172639,0.16342272143623005,-0.8621455564457634,0.39920677035930763,-0.4647696043066861,-0.8789981200433357,0.233645095629194,-0.40278743342025813,0.37767266029396884,-0.8194989996160827,0.4921498988678632,0.9258769519120471,0.4720403049570472,-0.15261553454772359,-0.6944165454336073,0.78453633496155,0.3339196898637564,-0.48943804199879815,-0.29688340047182216,-0.2143068910985796,-0.753265831312,0.6401789619487768,0.5177726232671891,-0.04318722313804135,-0.2773607130374359,-0.4475828509538511,-0.3168607475019608,0.022498969146931946,-0.7708698889103105,-0.6441079229056946,-0.7769751599083732,0.6291942356322895,0.5145775384810121,-0.19935082957729977,-0.9616763866573312,-0.1538343545975036,0.8754057875099603,-0.6570559681085034,0.8938779043794156,0.47303829584083656,-0.45427054690389745,0.8343154139671491,-0.02076920129358617,0.11378955460810758,0.8540334258319235,-0.8533394819811481,-0.03582125749690945,-0.6190331281998405,0.744910239461188,-0.20463007003140032,-0.9379912431124082,-0.7021098304630361,0.5263646164638551,0.3125360764114895,0.5880508232662855,-0.831921872924955,-0.2021577623786438,-0.7227660236729618,0.52924240522143,-0.3397566943125315,0.12231874825486444,-0.7519919966380892,-0.6129516608766152,0.7136878199984942,-0.02637593762162016,-0.029480683648023254,-0.21336267943946574,-0.484449864543409,-0.16931942319926796,0.6321803674785227,0.5290747247747014,0.40958693092551135,0.005235943731171311,-0.9589260056281018,0.33729891203301365,-0.6545400778167731,-0.9545348441561795,-0.8799827357373221,0.08156802108654482,-0.676711515699512,-0.1088790662230098,0.20219076658964164,-0.2238172880732444,-0.8466666070992719,-0.8638713987742669,-0.23377556461499005,-0.8401716576786025,0.6538402107541368,0.7433271362939955,0.8410102093895255,-0.4655095629454564,0.5386894331424037,-0.8067418704280418,-0.8348333918595094,0.9605695479079754,0.9126167199165278,0.0535173348923228,-0.6466743504880612,0.7792523703734608,0.3556225732829179,0.9164287658913954,0.5110319751069534,0.5444921071767712,0.4409748501430195,-0.0021762821014659206,0.44578351749176437,0.9543803372679072,0.7446787395829975,-0.7580170882091751,-0.9513957053167528,0.5919746312150636,-0.07956499945128326,-0.4275351355148731,0.015930275738587962,-0.7010996904756723,0.42234966574440036,0.4235448301996396,0.16489375948391438,0.4826520724202581,0.40913052463418564,-0.6433421307744372,-0.2768230060066993,0.36474528905633385,0.8231217615852784,-0.5641521656288883,-0.7953447446766558,0.9894209089221543,-0.91514333299124,-0.8272253908363361,-0.7964956936592014,0.10172963122831759,-0.2709714682684432,-0.05019196365958267,-0.8513135614509743,-0.23466072902302992,0.03002201263416342,-0.2342288467341502,-0.969736917807087,0.0897221143036615,0.1376688589533223,-0.0090542938288517,-0.12847352370677811,-0.9863247259416588,-0.2449761957291161,0.40651471832652164,0.5192836979429727,0.895238015849496,-0.8811974588988981,0.4707572539144915,-0.47594257746731305,0.6836331282266628,-0.3772893780376062,-0.6061109753377719,-0.6455567344733981,-0.6811510412207378,-0.4537971939098381,-0.7838595116144927,-0.5294204135703495,-0.8142983325231012,-0.1276850189451323,-0.5439734852748189,-0.8760387190189337,-0.3194277655428662,-0.7323762062783936,-0.09732982987645178,-0.12091189230551791,-0.21408874041644332,-0.42870004606734236,-0.5312560172879915,0.8826166725680857,0.08452917253181069,0.9574966865568074,-0.9958679292212541,0.2592704333197908,-0.992244991098288,-0.5136870008071177,0.45355717333496837,-0.4458584684735539,0.23488339475722847,0.43343299863721807,-0.541401865103186,-0.5983904610539823,0.11528699239243179,-0.5889048892575611,0.4344943719543433,0.9405499467706284,-0.11405666771432998,-0.8229977981950797,0.5560530670124662,-0.7961068045325147,-0.39741043761870143,0.5759972575603589,-0.39335851832725377,0.7668641776563017,-0.9858601603328511,-0.7491796514553408,-0.45451081323862286,-0.5001995107255639,0.5439340884653598,0.4490553796973504,0.6064595684393523,0.5718528947200168,-0.05092767546720711,0.19695783489226476,-0.4573804086854506,-0.7987402128376915,-0.15682973261470534,0.769318804149123,-0.5439632379320342,-0.96543168016006,0.0865958882523572,0.05263389017150022,0.6001661053939142,0.8589858279258602,-0.17577199976904678,0.7523854497112739,-0.1963883244546063,0.43225907625395066,-0.06665439807440021,-0.29608249701214007,-0.8569623549115308,-0.34026254126210886,0.6862425093395734,-0.7801994682013731,-0.8915782117862878,0.040077633768354604,-0.055070293008959936,0.6512807983594031,0.38983152180094205,-0.3850171962016208,-0.014684353269251327,0.39042000454090564,-0.4618534925546325,0.43516150082312355,0.4634717382495577,0.5686915340572223,0.6360080731775797,-0.8380561508973314,-0.3135672926953986,0.9880493170382125,-0.2665005636941914,0.19592903525411143,0.08450430062992842,-0.30896627909154295,-0.07224290562479851,0.18216379123974336,0.37753121054882466,0.05356052171918302,0.6621664268268779,0.7382720097807651,0.5582477972180448,0.8444936661628588,-0.6841362296371571,0.6164115933267429,-0.6197855539888597,-0.12815275477612686,0.24046540214140055,0.4327767938416389,0.46184032365278993,0.4204220365378504,-0.9796919947899726,0.9224531398784028,-0.02587603437300179,-0.2166204049850451,-0.981045736478994,-0.9232231923449841,0.047171017111179436,-0.05150749499876872,-0.04635543367870376,0.6194920322984325,-0.7628754155426487,0.889898759103134,0.14252853152480327,0.24049637234379673,-0.29924962256195053,0.8467790209991013,-0.964220039210694,-0.47456713549559093,-0.9502229196127427,0.24905537762761099,0.9670094920177885,-0.10872646016420406,-0.10556097933013997,0.7931953428743017,-0.09093635504012032,0.398708268751232,0.30446786836937934,-0.6055703177020479,-0.7701629368108442,-0.33314696031030444,-0.6716928104199712,0.9153231373958322,-0.8238493109495977,-0.4348317106359162,-0.8841098882013132,0.47975193611076183,-0.27656582638753846,-0.6234123957505864,-0.4099391715757892,0.059145996417470315,0.599908926706076,0.715928637169571,0.2656032883668049,0.8269112468691404,0.00043979103012881104,-0.07881393851556318,-0.5529269597047957,-0.3326913675292871,-0.9519600500370586,-0.195931726310821,-0.23244430458834742,-0.38957266999201734,-0.031301048703169854,0.1548269028319038,-0.235311591286401,-0.7278079333212344,0.7104818531731669,-0.8302025535800799,-0.5771237169489574,-0.7721774905484444,0.6766802218625059,-0.8519054668015653,-0.08726847827244621,0.3105164288048208,0.10600690777633281,-0.960497831409692,0.009447360403149307,0.6398367316196767,-0.17149751951719716,0.3157095386804045,-0.4105349814964635,0.7511242437720866,-0.8371887258568906,-0.9495263643333418,-0.1398584784685083,-0.43384113540848623,0.36411457130122726,-0.550922836314875,-0.3189087101102368,-0.6479089084931307,-0.7081391055353298,0.1341533749140571,-0.5380733921004611,-0.8728630774550885,0.8988810137303667,-0.11546851881254738,-0.6520557705377229,-0.3871272607991635,-0.8208565350477954,0.08055209013513176,-0.8508546699252378,-0.1492288566752341,0.07920575385792117,-0.2739546501502783,0.04938956356445079,0.8556654569642654,-0.6770183380739331,-0.22093076444081927,0.8246404830192264,0.6741946423967571,-0.7524713828493952,0.6018158004567229,-0.08901398221843593,0.2641002156149701,0.3007601021225801,0.2534398657073016,0.10419349178491322,0.6421416042292152,0.9606202863643458,0.764351478541528,0.2947877145642055,-0.1656988795067571,0.4358782252908384,0.8291881635019414,0.22691862359621418,0.183281107368523,-0.2586535252164893,0.6948166369744253,-0.06344322096467703,-0.17556031712250453,0.990162905294887,-0.07064853298824614,-0.6517296097147648,0.4382910000077749,0.44235349446756933,-0.2654477709934898,-0.7878994857620198,-0.32691629929435206,-0.7926582030190402,0.7310713348125197,-0.8317318076734003,0.5319110734009891,0.6121833653501563,-0.18251423955963963,-0.019892939398468257,0.7780251400147635,0.0450378613006035,-0.7416074136864259,-0.21573081865720678,-0.3281795313258986,0.5767909665528037,-0.31856482156121235,-0.27546275902917927,-0.08369558477045069,0.36794037058288187,-0.8460843898322323,0.6031979810132599,0.14086648991802475,-0.6327634145540162,0.5979861990504736,0.36050639976405807,0.845615773435701,0.9376964911448002,0.4403677567831459,0.2245921103086228,0.5826247942601233,0.7230898808694202,-0.1457974823019178,0.8847674029021573,-0.6293862631806039,0.17774150077491835,-0.8866081546094492,-0.7251868445516712,0.9112247297388372,-0.924268500005791,-0.3128961271332563,-0.7749539001822497,0.7826647527502546,0.2703848032055105,-0.722740178538942,-0.9612648053893539,0.09532669648247616,0.03172278790696059,0.36495492046480615,-0.19024023496777953,0.5871501160150452,-0.28368345392079986,-0.528358632675045,-0.1906686941299327,-0.9102313754447098,0.08212519834796939,0.8122170620926539,-0.7657884548613798,-0.6395824288560881,-0.6216946847908199,0.211650444665759,-0.5636542679835315,0.7254032205985559,0.8239378881126367,-0.8141620325263829,0.16987958488402755,0.9756449118568893,0.33379640882593886,-0.0401061024381939,-0.18632685038167618,0.5989832800320636,0.8432019509808175,0.31109495337767323,0.4887992659747247,0.9326651999713766,-0.16407411810646655,0.523472666014525,-0.1531747532683304,-0.6409739771211955,0.27263206958479036,0.08875593833188433,0.2613698761828558,0.004549840219870038,0.850740507001529,-0.09359924110319506,-0.3705236332185835,-0.426678343850443,0.4150129878713522,-0.6327464817118058,-0.18510652065792954,0.19560752079970323,-0.24754242476493488,-0.15003529032863216,-0.36668769742153606,-0.3814253870715574,0.8776061335909358,0.39439590695182547,-0.897188957923861,-0.30350446215107285,-0.19195552215137093,-0.07076196296105342,0.771366960938165,-0.36425811698792687,-0.861937602349329,-0.08666131599469884,0.8871537108272249,0.26338933379970997,-0.3161899398610477,-0.3357432791578122,0.41810775710419157,-0.8817170102608246,-0.012375765613782841,0.2525666590160378,-0.7812262034264976,-0.9806091799323237,0.49439010928225313,0.3489709767945959,-0.602280705998276,-0.9046161053405407,-0.6068912745065487,0.21722783408672308,-0.20069669600224882,0.724749437241788,-0.7764796956367035,-0.090793949292307,-0.4630836859162446,-0.6659637616296443,0.874907097900338,-0.9235552721888518,-0.440116740191421,0.03009019984369221,-0.39863044696746686,0.3140321027763835,0.8803071093521733,-0.5616827461344557,-0.14862423690823856,0.8575653644217169,-0.979916080325503,0.7769929807667018,0.5514362737161217,-0.24734847933251491,-0.7898418871423132,0.549977309162561,0.9683999322085266,0.23631042870228539,0.973787259438017,-0.3319445487580323,-0.7200495735207366,-0.6597055758393275,0.7255797490758329,-0.3576181528297855,-0.6456119232548587,-0.21158964792514368,0.17974788914145012,0.23067197861577105,0.3065520109701658,0.9365543711969462,0.11650304036035505,0.9685228647321362,-0.5267690948742799,-0.8843947656856341,0.6071920968349922,-0.3631762772421789,-0.792369160059091,0.6587629115727465,0.808442111629052,0.4733055923069611,0.1699864318028974,-0.18020198016474287,0.18228034486861722,-0.5803787988375705,0.2939097420831197,-0.20036107601620504,-0.8993833277076703,0.6014328745887705,0.6263474116147683,-0.929724568510295,0.44260106563126267,0.12585309246316637,0.5417201799987346,-0.20231959644762698,-0.5504642674924266,-0.7080068682857793,0.18127793040409199,-0.8566929884702297,-0.9832952638448716,0.23389566520791583,-0.5215581977170987,0.6951315163136971,-0.9051320013282396,-0.8530706841123062,-0.12236474475647524,0.9564688303400493,-0.8662727410403832,0.3183332752001755,0.8486256265347198,-0.7135696002334535,-0.05146391333651115,0.6079089440290459,0.34987166994556,0.6928421301094732,0.14785796561149356,0.4124036759085482,0.2660008789487862,-0.7122231484390357,-0.05189751852182327,0.8179700351640973,-0.7906513663833263,0.7540015683105854,0.6630969666699362,0.10193846216499813,-0.9296398841229025,0.5752136697164838,-0.4416738929851375,-0.19245135207512637,0.5593523056736162,0.6642522393177419,0.47794673345352545,-0.15739267691817113,-0.3456578980857056,0.9859757129034218,-0.3783950499971793,-0.4270377733800227,-0.5570973975902221,0.23959992833162508,-0.35751089648396184,0.5652595310411377,-0.6373344130268221,-0.08611474742923564,-0.10302733244134224,0.43827339425782147,-0.04539637338843788,-0.6472067447889137,0.48230045994708703,-0.587089155756537,-0.8764881539266928,-0.20064840833147377,-0.4244079031694782,-0.8262497996585346,0.0549117178077834,0.3654542436217186,-0.1465305193509765,-0.4312582914023019,-0.026013967443933916,0.7760933473304419,-0.6920174322881796,0.16595785151166054,-0.7301552132406149,0.5737199600166065,-0.8064250242282648,-0.12148851385852409,0.5607022392889375,0.1704067705135866,0.024955676680147088,-0.007912719871857314,-0.2968690636101289,-0.31650815451933617,-0.03974195249991458,0.9367250955754007,0.24798314263590246,0.877977384864189,0.5779960575101852,0.7906927066331255,-0.3932645646387377,0.23929261736871332,-0.012454541071910463,-0.08692080482792656,0.5321731843625769,0.9098256279337875,-0.821099714094014,-0.72264064041333,0.8521334494565982,-0.2774811280118164,0.32376204602013026,0.5850334068962721,-0.4723840868696308,0.46571697128683587,0.20923189202329007,0.5274190156961438,0.4434754695377541,0.8714127813591295,0.2318959869990045,0.810569643647989,0.8039035567110266,-0.2697895637987488,-0.5706779115602852,-0.11457677228189267,0.2691722637945393,0.9124861316059424,0.38908558826190487,-0.8036511375461275,0.6630211286033494,0.8369094720289976,0.06666625707097862,0.8064100504232901,-0.25005178293464014,-0.7208991963293014,-0.00939347267938817,-0.1086215089183622,-0.7999895504670744,0.3356237626909927,-0.6887259663210719,0.015961498795075357,0.0972623508960404,0.5739712238531312,0.3511304014909835,-0.7042306704584566,0.4372120990744133,-0.26253264551209055,-0.6479161881763877,0.49873667623327694,0.902976660015794,-0.2808233020853359,0.32664422456687303,-0.4015421837725028,-0.7820744050367447,-0.9825260028408975,0.47684858021896925,-0.11671848089374692,-0.01225043892583133,-0.0912573908027104,-0.5739105761454906,-0.9084440606992182,-0.22400169460856179,-0.2569324852530743,-0.4009535059794618,0.4536243365970643,-0.8201441766205217,-0.9340568949197964,0.8273393688925053,0.733754212683503,0.6920542497996438,0.3409845180351166,0.7399764666136135,0.53861733899275,-0.31124113657003183,-0.41946797847033923,0.9950449077806764,-0.2064320833743254,-0.21617670146859103,-0.8227456587206332,0.20845560109214056,0.9482420569365724,-0.39910144196196917,-0.46177119995663163,-0.16873326504056319,0.3614497755611208,0.08208658338384933,-0.41864666367846215,-0.2964276195636356,-0.01842686576600827,-0.27349674116990574,0.7963016395528666,-0.4389993099756204,-0.7721022773993373,0.5500636376471346,-0.7818177544088318,-0.09607395622492365,-0.9497866736621662,-0.47910185802103633,-0.3550001671165308,-0.5474882083659869,0.5825756274107217,-0.5439229559004248,0.7399015999165208,0.44403705614612154,-0.5751412780092531,-0.7155887188488742,-0.30146923165433104,0.6661515325679257,0.7909563129113322,0.13279505251473078,-0.4487437697450407,0.5118796956890677,0.8915922193441499,-0.22310368726159602,0.8862872948748428,0.11228520035634793,0.21310172749803402,0.6742291888780128,-0.5161000488672429,-0.16108319896862489,-0.2662025702582054,0.970461011830692,-0.14819325013649554,-0.9723672569385705,-0.7098274863427778,-0.8225133011775945,-0.22420415064191046,-0.02665720450335607,-0.553274408234534,0.10952739622017815,0.5311595924387675,-0.5564455165855278,-0.3589788565103901,-0.36498509997429807,-0.3096660767706446,0.07922772049889115,0.13028747614002678,0.5426401227873625,0.4316167914719071,-0.47564921596437615,-0.07602248941843337,-0.21141760236929663,0.5011238484256344,-0.8700273174246964,-0.6940087891076291,-0.11909394077294022,-0.5451099303045462,0.9914346715012594,-0.4003022967984149,-0.8063702740997581,-0.9509806502154039,-0.5618443914837281,-0.6635932242561575,-0.893791195915213,0.1547281751836327,-0.15879134531798755,0.023790109657762404,0.43867696943804857,-0.8585150839228037,-0.5244723188435292,-0.7107642017861255,0.38945728610435415,-0.8856394528907272,0.41626436556293367,-0.5475384862832737,0.9250656935418176,-0.05638354358444375,-0.19928280391051034,-0.43174308859802835,-0.12135606520857223,0.8994653390461558,0.41966213548782383,0.14615641450521877,-0.6177043580642217,0.3793301118772159,0.5830789318495473,0.09674917909405889,0.6834724899759232,0.2348146440557779,-0.6784698071707319,0.1612528053905311,0.9757556456507126,-0.29277412055456475,0.08110583221307333,-0.45532770471371764,-0.3054076595056785,-0.7884388505470196,0.04974203192310944,0.8472341946849398,-0.12894811360659242,0.23959393143549979,-0.1038358448068275,0.3662358738477696,0.2934008764632472,0.6958541271131624,0.4587770922634833,-0.10411125739457583,-0.8509306313920699,0.7712852327216717,-0.8842747877186993,0.6587368988006552,-0.7538313853547275,0.17316493159586255,0.3731098439560383,0.2572108990279649,-0.09371933608633032,0.1835816577507614,0.7304277284836789,0.9734547275816263,0.8558595380789564,-0.8556343293683465,-0.6810702173185081,-0.16867089995265627,0.8619637093859436,0.06993210235281788,0.8844958450587319,0.16812508110190216,-0.1738979635226484,-0.608300222206499,0.7088290437675178,-0.017454927235521445,0.804358506413775,-0.8106334434383913,0.7992889509191976,-0.5137771056112016,0.9802918382689132,-0.08275329210159466,-0.9028844339307309,0.6899153765995054,-0.22447864200941053,0.39418032020086113,0.2634978291596166,0.26261966317540275,-0.7391228400491063,0.4215646776569666,0.643953448613714,0.6876768560700088,0.4292774748266013,0.8934383424546515,0.41374809016930025,0.8707268939211541,-0.43013137426863557,0.6347584701212501,-0.4768903123198973,-0.2974966051707262,0.26231920749221654,0.5059378811239916,0.8421069088294724,-0.7690639528365112,-0.8969591102952824,-0.19960894331304824,-0.30019604052435056,-0.8414426937280409,0.8713508302441271,-0.3395862836935434,0.24819976688026268,-0.1648707986641359,0.7448412028436946,-0.23297572705404623,-0.15772163048528576,0.722462576411715,0.6615594803201233,0.6579716724478892,-0.46835404853747264,0.42362804201306625,0.9369936662015235,0.2559468637306588,0.7574718030062819,0.9261705620781233,0.07540806375557699,-0.09354824606749113,0.6750677703912595,0.007053039835846919,-0.6260913853130882,0.3274942906850047,0.250867501874557,-0.68758605351157,-0.7914344472552305,-0.24333031523478224,0.5119990982338352,0.46522554679934736,0.34256327274561893,0.1283018516113017,-0.2792916442483342,0.09353982504836389,0.015300810612411777,0.8731364835082529,0.23489448634396615,-0.8437910926396078,-0.7112021799967781,-0.6504044396067326,-0.7919519726946043,-0.9305633803729674,-0.5128286527327836,-0.6827478355138599,0.9812875991006897,-0.31415071964970426,0.21991219132713424,-0.2723413823680293,-0.7564012090050269,-0.27000867718872723,0.2251283295514804,0.5975383744314273,0.7472060894171864,-0.680392670341825,0.2927614405970975,-0.9998979936304462,0.39933365654698605,-0.9231720445721879,0.08338954347985288,0.8390809030267077,-0.6751419469782908,-0.9872927285529289,0.7508526295836428,0.10861780690182936,0.6164544425491534,-0.46853421148798413,-0.24580437576568434,0.8446994385909019,-0.6837347811592822,-0.49594049555950076,-0.7084046097817269,-0.2540139851241625,-0.45452920779168493,-0.51751511721945,0.6835615222598684,-0.3237385790866491,0.9043064713700979,0.30893563159243476,0.17060751502550286,0.7200010089161595,0.8174887653527931,-0.3937998692991117,-0.5088207949499426,0.6168839992750139,-0.4108810502717407,-0.5318037813351941,-0.22829359338736788,0.41280409876798596,-0.8752804938839616,0.07118383251437885,-0.29731649978340896,-0.7970283182611791,-0.2676702536818719,-0.44738047408292503,-0.6164504606792927,0.46674756204428536,-0.8316181118079844,-0.7376246869834387,-0.8677399005950194,0.4926125692351291,-0.23483299809630578,0.8281426161661616,-0.3815681584999246,-0.2179961501022798,-0.3263247990691005,0.9572072083606044,0.9424912595933522,-0.9359605011665864,-0.35985753006551624,-0.36755180462514403,-0.10250440596624188,0.04004923338802245,0.2385365868954962,0.5483805430472124,0.14892048038902228,0.3581681252687636,-0.5319882786491797,0.20586880255828893,0.18002113579021284,-0.7402170016349146,-0.4376821487764564,0.3657639351199249,-0.8582394864162411,0.025992162427758536,-0.8354373922970469,0.5725613755855632,0.6771486790028693,0.043892112508889206,-0.2115898258077621,0.17562683823760206,-0.5664881066953591,-0.9020495390580744,0.6694936243013186,-0.7948166873247399,0.4589407892180011,-0.6722457268804105,0.17850347541475742,-0.8644772498862123,-0.680463455905062,0.8899226377882836,0.4469079289018988,-0.5931869534270107,0.646707565177971,0.4929495926904464,0.6499856033355498,-0.058455487750177504,-0.7820095034916831,-0.21037735458428264,-0.9535484845605877,-0.4732556255302614,0.5347462280894577,-0.2597460215974534,-0.8483634424534616,0.866666022930528,-0.8221527195819562,0.8321625716837057,-0.6421324102123132,-0.33410246146221456,-0.9183773223828717,0.5224471209591689,0.3727197469039156,-0.7568311997272282,0.007121417550662423,0.7581565574967686,-0.17516824789061636,0.44772108441577296,0.418700635221241,-0.8319534363798599,0.9366821560146961,-0.08269827877111922,-0.3934202668746787,0.11721498429345731,0.31902848611537493,-0.615378901980439,-0.4046413251583919,-0.21107946865528354,0.7878900295778029,-0.21476402475287137,-0.8643065876736676,0.2397287599424791,-0.5685555365043926,0.09948685362842605,0.35761799160029395,-0.017613949641515747,0.5492049586574157,-0.7972817405017764,0.5051182161750429,-0.7123503745468945,-0.29327833955220284,0.44760935256104123,-0.3502472814174087,-0.22601673622935362,0.010054137113333765,0.006158741023628567,0.2762384269055034,0.7472137965775258,0.12131023674467321,0.7071525235040731,0.4078067123945195,0.5256075494285606,0.3587617260921838,0.7175706911963112,-0.9686849678394529,0.3637345786867316,0.9925167156484624,0.9940866432285232,-0.7048309711404096,-0.7719332304946624,-0.03750196793126148,0.7020270088745929,-0.05119800629307608,0.5796524129267089,0.5539564725996338,-0.5925191615069173,-0.10666380221631155,-0.6955539157323573,-0.23345156352918706,-0.009268455158054256,-0.2595190624753113,0.0891422659521577,-0.743928795852044,0.2540867856820235,0.3607810905767761,-0.051177382292030976,-0.14654104236525867,-0.23587306239274278,0.7361329545070545,0.6923090452328982,-0.4611163390595927,-0.5589909395507893,-0.1760988954055519,-0.6084342097291526,-0.7878297986156768,-0.9410162189691144,0.44174402530369306,0.9406259044970728,-0.10667141391608248,-0.21195638461199773,-0.6893084043115723,-0.9202550477085651,-0.22099320822548751,-0.5872945175616608,0.8503091230206887,0.9116479273938503,-0.09647866014101569,-0.27182544733848163,-0.47451948297676916,0.8170798513927986,-0.2988692643504606,-0.0528997026278674,-0.9408014751241326,-0.8601331322703154,-0.22222498809518232,0.0673781344701192,-0.24765539949581095,-0.8546351333949084,-0.5501463144157159,-0.8407345942296437,-0.8858310129150866,-0.3565342226436171,-0.7194768520191277,0.6906106294242491,-0.024863918119039097,0.6980593174687444,0.1658520229387146,0.8850573106157055,-0.5210778099447918,0.6603561624579983,-0.7352923911392729,-0.8947019190755671,-0.03173730722660184,-0.5322690100204093,-0.1668598225123349,-0.9383116306664466,0.4418920250408216,-0.4913247260720336,-0.6880363931673508,-0.18097248618544004,-0.9362853399355315,-0.8857153659287831,0.3853353737270828,0.6786701584149604,0.2362507146643822,0.8334017934621252,-0.3328744310973867,-0.1567466111395729,-0.2648779542871318,-0.8030940068521428,0.8057538763612526,0.140364136359594,-0.9951533873080985,0.8128823398331944,0.45399637344089494,-0.38706918165795257,0.47740712373067673,-0.391628255941597,-0.6754808892728819,-0.17129624812622068,0.5183879020215674,0.6414274818768997,-0.48109831476315135,0.9426756613134728,0.42000587455956784,0.048375760685223756,-0.346040093800132,0.932667008599904,0.5321096607201756,-0.6052897623507936,0.12238128004952031,0.3735051685220272,0.5761219253375569,-0.8776401422333786,0.6754300213627156,0.6266142796575489,0.14367168999363478,0.6440959670515642,0.14133322178323526,-0.8620447663835509,0.5116842380795446,-0.7772426855905165,-0.9201496675124231,-0.5260819204675591,-0.662809395199724,0.7571541782207949,0.9093896516489444,0.7132031527222731,-0.1437873840117304,0.1621637529996367,-0.49075074495658155,0.759458437088727,-0.2089290715421659,0.23702316202708018,0.7713165270243394,0.3634046608554595,0.31976142863518975,-0.12572546027388787,0.5226010528162632,0.13174859606747247,0.2821915793921448,-0.8714025577650713,0.35534171478615084,-0.10264561449882748,0.7320699138265436,-0.5023428095707912,-0.035057691226713206,0.05726292354769269,0.950045337809583,0.1263116123789958,0.8660557116706828,0.4560083255287568,-0.0068976952309534045,0.274310355320702,0.5521285298379919,0.4832477216877804,0.860174687326964,0.6282771082319409,-0.6053208801678249,-0.20503845500014684,0.12074888942664708,0.37469024908160153,-0.8288602718158943,-0.22680975710424345,0.05342079911183717,0.20796803740257208,-0.9506603241286584,-0.17701875903175712,0.729976243766737,0.8520566525933762,0.24041405832537555,0.5125956755643479,-0.8728961375454433,-0.037365057918227196,-0.3583226670816342,0.893904814480851,-0.4829858444773255,-0.20178991136427527,0.7002844316091301,0.12857847305581038,0.3959798119877933,0.9999160882976248,0.1626309789314968,0.658739813840455,-0.14664597215651576,-0.7700710441374947,0.6248335800984375,-0.4034159653611762,-0.3083151923794205,0.1544188922548504,-0.9861355468435664,0.6740672141712258,-0.2572337872126669,-0.11387049865095489,-0.8976406107445357,-0.3962190799446703,0.3555410001316408,0.26626080865558444,0.9512754692382408,0.9105973079344818,-0.8379485584547045,-0.9812590675661614,0.923262559817781,0.6748654591785781,0.39676981338488915,-0.10658237481702437,0.41455311286892926,0.9370011843411474,0.2230593614271721,-0.731537611260969,-0.17301437491248117,-0.0011658161511852727,0.1761494548359547,0.2931660662820894,-0.14432525635223203,0.7699927501749464,-0.6694426637245514,0.1920984843644511,-0.2229410215215134,-0.22949464659553165,0.8164499410944033,-0.6649137880425127,0.1880042611399868,0.16671960960140633,0.027492229761179487,-0.9918523971702202,-0.0639519443041654,-0.6951499456984895,-0.8404921023391755,-0.0035061996265521866,0.720914139400735,-0.792448852869999,0.8258480410502276,0.42602605945743166,0.17373846847042484,0.24084997831303534,-0.6879030142640292,0.7288875564952875,-0.32726353222290394,0.46256584314930543,0.9992933515117067,-0.9338628571116072,-0.1021161324438069,0.9958974460947023,0.13565321847451456,-0.8609231163449604,0.5420323961281075,-0.1780187196628874,-0.7811767772037466,-0.9948164142951867,-0.9417907413776205,-0.18113973030752117,0.3624423969043485,0.19899541171990487,-0.35962649313786776,0.7862938787032171,0.9680464042708334,-0.38806755159004835,-0.4360003719777048,0.6696017662242912,0.9858838896716858,0.8873766652337413,-0.8234181458295728,-0.00598244118605451,-0.06093666857919344,-0.4772212145063124,-0.019699249904938876,0.11608484111392103,-0.4132589572011107,0.6161736920858101,-0.7256175887138718,0.3802240424820026,0.09346732530769236,-0.31158216223332325,-0.5963076334521146,0.2620151854351067,-0.5231046886361348,-0.07718419496117769,-0.40717330125441,-0.9264901887415813,0.40496747573680136,-0.20937756438059302,0.5716269158056004,0.022958753811060717,-0.7190760303213687,-0.5784804980093481,0.2307485644695586,-0.4519413583612152,-0.4634542475451142,-0.6407527190811386,0.05064911407768169,0.4428330138583413,0.9218361397439686,0.6758968736490907,0.535390371773671,0.16011157571587306,0.7783358422792181,-0.07200065509075838,0.15500201895842802,0.9844618432149441,0.7737285883481563,-0.36197986297584406,-0.9709137576128443,0.44747979828121476,0.5912807958634582,0.9053665861292395,0.1084206566567294,0.04633980282601869,-0.2843808537461894,0.0541864008362226,-0.8087850069225024,-0.45637341524346875,0.11205735646838577,-0.7408282687994712,0.505960951382266,-0.18757476259923844,-0.2179333188874017,0.27758686610918226,0.7989404514959995,0.0932836640519,0.9500748788974192,-0.7887808787791111,0.24606509580778435,-0.026410261917570114,0.06089122576989131,0.09024155429688345,-0.3845412814953798,-0.017277383616588815,-0.7700493089319803,-0.2920072691395411,-0.36380779130198504,0.042117005416696614,-0.4783530397101846,0.660441276936742,-0.4676753751180316,-0.40189425704547793,-0.67410032309292,0.9127488030952162,-0.976930754073336,-0.8796172855872888,-0.8079657227392985,-0.33173622943272374,-0.3941061263844093,0.06796334081710675,0.7350895309119074,0.3446453661896769,0.3573969435735075,0.5575281749638588,0.9639390438095019,0.9742486822986338,-0.12958608683056796,-0.9321868989821814,0.35003382762541063,3.578256996709393,-0.4026753231316029,0.7809587840620295,0.8728928170526723,-0.03120921522627961,-0.6886170923786046,-0.175615314982828,0.9411577176677077,0.7525706456721403,0.2248101930042099,0.8051752400345183,-0.9511652830621178,0.006157630421404603,-0.29200345108674786,0.8918503128445268,0.6808674985691873,5.518875426172777,0.7044961672591055,0.43124331663047727,0.0676928010473341,-0.4503556826214834,0.9685123072588349,-0.5525325841565564,0.25482022802641335,-0.297967193957582,-0.3167447182077199,0.027907587076718476,0.6588195136362824,0.7863967892645236,-0.51339437132376,0.1576123359587723,0.5095750965472934,7.706454248239071,-0.615436557682884,0.7079479874638263,0.2237074652595475,-0.026641462240879987,-0.40344128010698765,-0.8725402684622388,-0.13016412271779834,0.311451757659772,-0.736986640210546,-0.5878998693738069,-0.5135832593835233,0.8364238631856078,0.7999363700828434,0.9325714125037811,0.20000172769657404,6.7066258132324466,-0.07607472218189892,0.15561845934646185,-0.658530107304576,-0.7279123584811741,0.35989042857131226,0.005153092339598597,-0.25742906013947797,-0.31979122632453694,0.16473291308256952,-0.03879666376619262,0.021593561976091413,-0.24579374285533517,0.9998105128897717,0.8311028484904606,0.23941532657442416,3.310988536553343,-0.3782332545780849,-0.6822717122603147,0.8761940139633394,0.40866469754563856,0.03775865534641798,-0.3868329331737959,0.42570620136030257,-0.5923012743316453,-0.9624618930258015,-0.5975975981681376,0.07526329477661663,0.7919758057061044,0.6070553215200835,-0.9161400077633631,-0.9328443557097815,1.7491362260945966,0.4820131785838728,0.7675767991831577,-0.9926401842042099,0.6149544496935175,-0.7443657477451664,-0.8994082683620159,-0.43356416045314766,0.7686894769901961,0.566411122170631,-0.0688861604613068,0.020003837570741118,-0.828724388120387,-0.7222250731104827,-0.13512462150999388,-0.13564968672934752,3.133850761017186,-0.897185641018351,0.3206717680909893,0.09953536070317603,-0.9943351651458692,-0.9412385220121622,-0.9176381885963117,-0.8377926893298102,-0.1350294549815987,0.06242705578562524,0.5472694970286405,0.7042783327610052,0.5371277150052054,-0.18744941730738585,0.25128349887071266,-0.33291411521987424,1.4733776583727216,0.11053934530173071,-0.3422800314140577,0.9875255780921545,-0.652204790798425,-0.2319702632375561,-0.2600402170997963,0.5022599837905908,0.80070033533376,-0.7306703119490818,-0.7963267959527677,0.2511085472606584,-0.035345221253066716,-0.8879002953607732,-0.3556241960766364,0.33569545760393504,-0.07107345359010575,-0.6062878510234582,-0.04027643523153734,-0.9661991868562603,0.050375101291276494,0.3300949331977747,0.6710780564658894,-0.28791822117916066,-0.9448504887943258,0.29961843749523065,-0.9871140772499841,0.34309190590007166,0.8679654050005612,-0.22614439647598983,0.18929295460064993,0.952303098067419,0.5031448343429077,0.09909620802197883,-0.049220863740438194,0.42504786150761786,-0.5835495197815286,0.04207632568475694,0.550524652588444,0.22293244916246047,0.004970129778181561,0.4768582412944739,0.6681444861494701,-0.3567682579643553,0.04939849727668055,-0.15914861883570264,-0.917472881459249,0.4312878059474434,-0.5227855869427793,0.40082077760499035,0.6318836280684441,0.6047814054867562,0.5537216051421348,0.5012122328048909,-0.7320677331346293,0.791296282920434,0.5162970012495707,-0.3679035642453833,-0.32789145088787697,-0.3918884800544017,-0.9021366438000514,-0.018633593310552365,0.6580728084964549,-0.21289086720936468,0.8573964043377091,0.8418965933645359,-0.2531766171242893,0.4007920421112201,0.9208886263763614,-0.11257082629360526,0.4617059640667498,0.5837341256944226,-0.793805045334494,-0.46569838068845637,-0.2696766467049584,0.5258816064762359,0.7526676376710808,-0.9435172472734906,0.3558814963380228,0.35960197234461333,0.29797576507063583,0.05969295427578847,-0.281740729371568,0.412289455010604,-0.027642133587403972,0.14908895106299358,-0.004889619773496112,-0.1615582033070051,-0.289042571587687,-0.44524205443690235,0.2176360500204142,-0.7124310876675104,-0.4090949062005943,0.8640158767149093,0.7085634822447795,-0.48242913148022704,-0.5177035587100172,0.8728299870967489,0.5202858667400341,0.32330337708049983,0.9127307226527461,0.6629345672881208,-0.8858905304840836,-0.7318295706577018,0.2737799256449158,0.1461553751491751,0.6913878884652354,-0.8498170107514453,-0.44759250550978835,0.19429122666189813,-0.12931773739356756,0.43311067393213065,0.8974268251715183,-0.8116964583361669,-0.3330940993697318,0.7431229005031204,0.4256076185326989,0.565448164849826,0.44040737804135666,0.29806694993700966,0.3010860701617559,0.5230719616634232,-0.7914111122054772,-0.3146840504962677,0.6142147238731066,-0.9843849834874451,0.8874974638688082,0.6773971349230512,-0.49279092962399895,-0.99538916932441,-0.6081033759949501,0.2266369194585085,-0.22256177624055395,0.9607054190306756,0.4709370946406657,-0.984779328302038,-0.4526151633225274,-0.4911177051608643,-0.35851578241476845,-0.17272309025898636,-0.3319855483837877,0.6669282160515593,-0.9183148110773136,0.7341294360111754,0.2731443137894427,-0.5576346600400306,-0.7563619346644921,-0.5156245793332142,0.6887010222416867,0.36526292468763155,-0.9065730507874848,-0.1495554240205157,-0.4213599133405047,0.8314203594195273,-0.05793619483027801,0.8587044157577957,-0.16237253411055697,0.4442398791205826,-0.7707947656338362,0.018540279906331225,-0.5505837715513595,0.4864588317422749,-0.6035873702601933,0.7584720225451005,0.4695316752564602,0.8044891830845156,-0.3408201599704551,0.8616095942479549,-0.5495967311520001,0.004500287337242614,-0.2941765638973389,0.10197624126706706,-0.1200596496864238,-0.04263101026118965,-0.8980522237913292,-0.3337300180960082,0.8958516172918345,-0.691620686523873,0.9428503732459803,-0.2679987679570316,0.0461548794061446,0.8074447056158678,0.3327961538968609,0.17385660581341345,-0.7413622709448162,0.9388607002988054,-0.3437343708930418,0.31156621473044455,0.5440210097367808,0.42091525242439776,0.5548908771731063,-0.9204341334873577,-0.6845401726626688,-0.7920281688547365,-0.19515571058550563,-0.6785800104115401,-0.40663860099875104,-0.1046113296782496,0.3228210683788133,0.4196263214764826,0.6315027064067693,0.3964948566795632,0.30497765481363803,0.21108475558125184,-0.29983351201875375,0.07661679990969006,0.9619587529967182,-0.8164753284833552,0.22907416653992319,-0.4694381765190373,-0.9912419235748984,-0.8516374347757718,-0.86880628036142,-0.027299670893310424,-0.006368852994572571,-0.13806762330189004,-0.12195182250951853,-0.815329295487258,-0.03825719187909171,-0.2623145791146511,0.8926055765855034,-0.20446118072791153,-0.7968269948472108,-0.973805817903864,-0.7949679487741863,-0.9034984148870386,-0.3874004065476554,0.822603527417138,-0.27726964132676024,-0.8562409631205071,-0.2584975277463639,-0.6671760861698133,0.3163884551750493,0.8024964665340413,0.17322609667457378,-0.2638837562147054,-0.7199736665362777,0.5015696404330632,-0.01682855689439637,-0.5404778952755683,0.31026164128780875,-0.7816010472767562,0.5124715772909318,0.08366080097173349,0.9829685795097223,-0.4293112711274867,-0.8248815619329375,-0.943513946200465,-0.08443069680630799,-0.9803774705898282,-0.05253749129543961,-0.9576385289404502,-0.31519369677647213,0.04891792781998627,-0.37917263406969637,0.24777337292600082,-0.8864168590807139,0.40674513871851126,0.012114444868593699,0.7819729040795188,0.02849799989987754,-0.23135544781618123,-0.676640857649338,-0.5156900080068785,0.14752212695145447,0.22202375256012674,-0.44337747577170716,0.8372802352892049,0.31318992915179256,-0.8747580899722652,0.5446216242266533,0.5478132879233658,-0.8638210505421223,-0.575507103862585,0.9828567463990625,0.8203380683688867,0.797982375628218,-0.9322519283528442,0.23201255096760418,0.3809219960197283,-0.4141691210939333,-0.5391919864695363,0.1901423231581234,-0.22424958195628011,0.8369402047441257,-0.3169357095648067,-0.23643581323799842,0.7143171328534286,0.9577767288353203,0.3797948888962477,-0.040584277463874364,-0.08520048370551744,-0.7056298822753133,-0.8216101403569125,-0.25237180327604875,0.4728206438819633,-0.977347442331471,0.5618605089529851,-0.17761940761655093,-0.38879154456514886,0.7928640513950316,-0.6731712071074275,-0.27190317269190517,-0.9957989629186188,1.7989635583221073,0.5537652534393531,-0.360835795705986,0.6414264552317409,-0.3597772497652843,-0.6461330504146634,0.30872866376665486,0.25063491988276687,0.35342601552518466,-0.33276962144674604,0.8978714344247914,-0.21565216520234243,-0.5564212845022853,-0.8262356635781514,-0.6377996979981779,0.6659854179800561,5.496667174308785,0.4121156553086025,-0.47260469906808156,0.2867183615989637,-0.014444625196427722,-0.8526855780181648,0.1602644513675493,-0.07285173357305122,0.5142526258554159,0.4234965294802764,-0.6267793882455872,-0.6112345848235445,-0.7063073830008357,-0.05806333899432195,-0.4432518009817001,-0.8460260947546107,7.405259018418084,0.00815586971501392,-0.5864956380401474,0.756254720486462,-0.03014424518005252,0.6139721776605238,-0.8187996298797249,-0.1853266671644399,0.28096330330803165,-0.38195786379445973,-0.4508636118331065,-0.771667848165239,0.0005991119250225996,-0.45429558690951244,0.5007909558892304,-0.3904770524588252,6.279953238925632,-0.7629973200856341,0.5169750380447834,0.17205567063916555,-0.3427442974744746,-0.2916357253353558,-0.6645665951608335,-0.8956781670797895,0.02687357604131714,-0.762758084725047,-0.7019201293586257,-0.2108837014590829,0.16893199671475578,0.15482368185262338,0.12355940279366794,-0.3743405057729285,4.903448974733015,0.7295292782928073,0.19659458632018728,0.016873210724196744,-0.5317192183847271,-0.9519119150931435,0.11816627545714975,0.39018793035635013,-0.8869758067560878,0.6921484297995631,-0.7442839613210093,0.6714702245088827,-0.42690633488737917,0.5645620271280731,-0.6135834380739374,-0.40865729027446207,6.031913580564334,-0.4881230866372589,0.6412849626393406,-0.4176560179663679,0.35002095426342544,-0.7029247517251289,-0.8621216503254379,-0.44210550944935295,0.44312693312149737,-0.43334301471136205,0.7590492726029479,-0.14902101584536598,0.9202335419618939,0.2132904743021327,0.8256554146987617,-0.309537350755149,5.760700577508327,-0.5702754651702233,0.06743170821958581,-0.4848723872853777,0.9340369126187932,0.5036357112126957,0.5799566577409925,0.8732168241722462,0.4549281278602299,0.4597534988142384,0.4791440413477741,-0.7278201198164389,-0.5470800958091067,-0.013821498805659372,0.30603326498263456,-0.6189337202204136,6.617266451616836,-0.6740974700572606,0.8035710082195222,0.6147130398499823,0.8859719233349009,-0.9971497443986933,-0.3556809344495565,-0.8422382448027318,-0.4522741635942354,0.8555322512873634,0.5338809930363779,-0.6822107114120437,0.4988564582919106,0.5276755880928886,-0.23914899337537424,0.6042685610446621,7.2801479552023505,-0.16535621750962293,0.12520440232595098,-0.8229758917764772,0.1841765763681452,-0.6320156151101104,-0.5912870805945266,-0.5084029578106382,-0.6751791389346163,0.6888414833904969,-0.07801142526312212,0.9927027490105255,0.962019088235677,0.46992020442695437,-0.22478736760177076,0.15133360481760239,3.4741755399796532,-0.015854507055538036,0.28058025192082386,0.6602346277516588,0.653523224789043,-0.5612488437303713,-0.7577667663841245,0.027955553916924503,0.45127643224500225,0.24381598381746072,-0.310310251182826,0.36168741511007135,0.8682855015162809,0.680841049555442,-0.16242252047850728,0.6587742206233178,-0.510234218120742,-0.2510935464472178,0.02400172919587603,-0.38183816650658065,-0.0620246430610948,0.6319367320842204,0.3187244856484919,-0.9003116673009532,0.0802322628953475,-0.05809983565690244,-0.8749058702662329,-0.7541761740270636,-0.974552230608385,0.5032366092021612,0.3762594578466303,0.3347383853107655,0.533799502772814,-0.16587906063134883,0.8934428868546033,0.08670252240670796,0.7037773426588829,0.061046574427207956,0.2962829199682102,-0.7213904876376551,0.9249270910547234,-0.92789305023755,0.06143503654881595,0.50754234510679,-0.8539974916799642,-0.945836302063882,-0.6309283839615769,-0.49864757287285644,0.1581009041715853,-0.18491155478674992,0.022951952361969008,-0.7434795677298098,-0.05939100132168451,0.6515504558390228,-0.5294120274758203,0.17859764004785328,0.5535642404904038,-0.9312687189429825,0.47565179246840383,0.683912060282591,-0.6575522545657281,-0.359559377838939,-0.3126382220137748,-0.586712138270057,0.3901243328922106,-0.47334458968967075,0.8781419197687692,0.8086506831923832,-0.7629970807357209,-0.007605208452298062,-0.07292287917061668,0.7552381332706504,-0.29311543120257777,-0.9001264956710727,-0.7823862090558585,0.15837687136195355,-0.9234722177689478,0.20920335490123798,0.8559905695836152,0.6176977633687517,0.3440250385453014,0.30381236532539413,0.18911009126689748,0.917857130270983,0.7882631015867754,-0.9817495588687967,-0.1514654167706162,-0.5511176899616792,0.3714643254095178,0.3846599641277626,-0.3529168212336252,-0.45549270993622104,0.2533867789209938,0.233111426347675,-0.6680124776779197,0.9445692753583217,0.9572191282877651,0.5716245455895332,-0.28752450547299735,-0.839820328793169,0.7035410642476152,0.24823754691365418,0.21984976896288622,-0.38064823280433946,-0.5480026402474728,-0.043023096618429735,0.9428245071572015,-0.8978896478100323,-0.7913192283814772,-0.14216609708279093,-0.9075330846865851,-0.11773007374439737,0.9348684894974917,-0.44761841909602074,-0.18612787144132814,-0.2569827831937975,0.07186603614784226,-0.3929780083101768,0.3203963275631976,0.11945458241890972,0.34895489750956643,-0.31112186673873754,-0.24858720221233965,-0.6588842820022094,0.09708545687463488,-0.6950360551866468,0.6119122573355562,0.5913121376635799,-0.17909396049835336,0.19092877481905401,0.5573927438672845,-0.8901633432027827,0.18041866261676942,-0.2410986470404356,0.22109089465507004,-0.6819299957345797,0.7060716726963661,-0.17905593971806466,-0.7620706787590639,0.31345577007131675,-0.4809602052065829,0.2303193667685679,0.25937558942244454,0.8045232876531883,-0.1501396077752668,0.2769766388486934,0.6571233511626855,-0.409298489134313,-0.27231944972706146,0.11668980686726993,-0.4341966552457083,0.7775999004349066,-0.7541750531802911,-0.9594074714828176,0.4491668304956289,-0.22552437728947727,0.22403257214435746,0.7173302898194411,0.6657293337564223,0.7489191349072337,0.6127369043997668,-0.019988283551661934,-0.30760685028094437,-0.4669597784820091,0.49161544820666636,-0.8725721094512844,-0.5074119739098685,-0.6879758571970691,-0.24388682114157323,0.28565387134812914,0.5448753455034625,-0.6089204947127641,0.07614076180320217,0.9901615879390415,0.46813985131985736,-0.37645289308908425,0.5657389801167205,0.5688833636994801,-0.9950542387020033,-0.15810213957104013,0.2141241744481559,0.07430635985353118,-0.2525586217018294,0.8918750033504332,-0.1320500670621203,0.8233647107286055,-0.5467826607010311,-0.2749454204897972,-0.4468523885461727,0.34691340247122304,-0.631651306381326,0.5109144813078952,-0.6504087162402022,-0.6265323558633052,0.6800173701354335,-0.3377751961679033,0.16016051203789816,0.17816668680372438,-0.16159827439404106,0.34064740800640103,0.7227204079567096,0.7929322954569753,-0.7469913012753684,0.6995293967197918,0.969533789358807,-0.3605588746714047,-0.5789184552652386,-0.10889503561197011,0.48039811056172654,-0.6042767022013558,0.9947036120338253,0.8128915651212529,-0.9710085843619392,0.7857196311069847,0.2636859605197517,0.4851024190199804,-0.9806409850654483,0.686288470576518,-0.6955805371237807,-0.027281991596015784,-0.8007490822476822,-0.7997304467353814,-0.6347092026890055,0.31427467925686314,0.8024587754419599,0.718379722773792,-0.22980672954577008,0.07914347592052828,0.09780272989137284,0.9806377519789742,-0.1784820889877794,-0.02250939623498218,-0.27581201851575154,0.6868177980319836,0.38971725037814786,-0.7675085416160863,-0.8934724218776132,0.8611785101529981,-0.8042670733499226,0.8849689755759832,0.4637067328325941,-0.9881034320046924,-0.37305462583791504,0.6993650456826207,0.3088583676709191,0.15124534989218996,0.06736040814103683,-0.5560031606929045,-0.5998477155268949,0.7786327134714475,-0.39427814400052974,0.0923145486045297,0.17670910543657237,-0.09254923817940086,-0.3819646498766975,-0.9757222409710062,-0.5817565110058882,-0.4271021640946273,-0.5812587805329417,0.9769735876164778,-0.9539028617223857,0.1913582053506997,0.5717279205376766,0.012078391041677943,0.250598208542081,0.8423436789790835,-0.49957515204130476,0.8677403038577183,-0.554223516322321,-0.7691088655523092,-0.5865589529897777,0.9017222662358907,0.07235747567035483,-0.5038493365982226,-0.7129855692146663,0.4098652968627606,-0.9139966361495047,0.22087828301421442,0.2152546060200848,-0.8557152459371767,0.9150625488829665,-0.8502580143636248,-0.288061399454154,0.8867356345152977,-0.7242992964233862,0.05408466245615061,-0.2671358639084458,0.13251422801123883,1.9362489590264385,0.09122702222671841,0.5674519786687183,-0.21374041106924582,-0.9485318004309028,-0.16163304951500002,-0.35993378653381464,-0.23497981645069121,0.6551045248825791,0.24524272489605745,-0.21952682024748127,-0.7342682248373914,-0.5970114143980607,0.9976626307502919,0.27339052598991714,0.07054901983163327,5.782141202471427,0.06218339850524135,0.15527626707752232,0.45849576303253514,-0.5375084541276584,0.15997536091013775,-0.6204889712533228,-0.3796837937492479,0.38738561103650887,-0.08053865534067889,-0.12356990007836062,-0.6296684174513183,-0.3128559033093107,-0.9153103480079567,0.7583346810491749,-0.5020217964407614,6.323916580433842,-0.8665515059239028,0.6117985924243646,0.6309056783811481,-0.03913105624678084,-0.7513635261645379,-0.1281895178052176,-0.256079429123672,-0.540801663863883,0.06990115822745711,-0.6663479131161509,-0.8339323354515477,0.40350177323640546,-0.4197191971590726,0.07273609518129734,0.4469069144573255,4.377828231057536,-0.370629230768159,0.08712712555135459,0.9677116265471101,0.13830748074023264,-0.6034175431149107,-0.3813570787483529,0.5316629411154177,0.7007869976462378,0.03231799246793403,-0.21301259014443918,-0.9732715853108818,0.4439439355256827,-0.7668539037708222,0.5370574133651228,0.12673679328552767,2.271092179401278,0.6595658346055295,0.43249816149730685,-0.26376539937543914,-0.9053794957542055,0.6478250633802387,0.865060223716434,-0.37852881678168193,-0.13162458893485862,-0.2914627070129478,-0.8962222510981905,0.13441769161893455,0.07458491472379825,0.6339826741880729,0.2399970665752104,-0.28383414657728384,1.013152004325363,-0.9034038986796539,0.7896914792908516,-0.028019931423205954,0.5311503023262563,0.015064106586658502,-0.19484145439393408,-0.9111112296804265,-0.8443184917856535,0.9688327539519439,0.7209623674769359,-0.7354916635514258,0.44821859924808827,0.17375663494891094,-0.8793524522380971,0.986871453763262,0.9269307182464732,0.1563314149428472,-0.9378285251779684,0.4276209253991177,-0.20686410069673455,-0.7333939169873435,-0.4735103707039162,0.5990344662253114,-0.9948010957692247,-0.4362016182202407,-0.5999322740328294,0.9428854271928842,0.00479936343577414,-0.3172235128030407,0.9719376350296807,-0.4344020891831516,4.158978040150119,-0.5596928169057019,0.20913820939022712,0.44600427930667147,0.20094922757235276,0.3175094593414032,0.21559727674175888,-0.3590850151301465,0.3862906892117125,-0.6926954006893927,0.4262671569975953,-0.3510982965771549,-0.9291526389456701,0.8682533073430788,0.037561316496384944,-0.0010365373957149304,7.589424035237417,-0.24545890163990003,-0.40255506745408315,-0.6607833096610624,0.29801598331736323,-0.6335766361523281,0.7538854222554336,-0.20794535636325698,0.5125398482080868,-0.4758660753567809,-0.8802965602608595,0.8906348959543609,0.6469125464926033,0.26514506227108026,0.09478902774018663,0.28005274111659095,6.928887144330218,0.35610193760814224,0.6368594939957668,0.8402711477539806,0.8304988401953065,0.5895157490436165,0.19942978601164665,-0.6109526400260378,-0.7011744096618215,-0.7013188204305121,0.1228378702889431,-0.508594582378721,0.4681573108250092,-0.7786566857156787,0.815395726667281,-0.5547305670063845,3.382673657096274,-0.9527417044551751,0.013576119965534034,-0.7909431629624386,0.822925140980026,0.15387193672483868,-0.6214212861972925,0.7708583921982317,0.8988292250973222,0.34429294282317197,-0.3409759795323886,0.4596686654572702,-0.6065175179754485,-0.3985054485707388,-0.7375927720066865,-0.05698382571633798,-0.26515436804669634,0.40161591152104315,0.9236538535201032,-0.22172449748415077,-0.37543999906920844,0.5830073145370749,0.4592266784792649,-0.02094060703079348,-0.7323809805559505,-0.7629605072177521,-0.3215409314255057,0.9073987115963698,-0.24920746447405595,-0.6298958428712411,-0.0753113375196135,-0.27511997875407224,0.9366193913893854,-0.19078758724122724,0.974405678612269,-0.10586968705417672,0.8124192778447668,0.551050291075013,-0.4600992122899359,-0.6565058358370358,0.884824453863196,-0.012995860690057925,0.9078965338045917,0.2510966845387852,-0.771414965496937,0.24972592618851763,-0.6051490748932137,-0.6311202760024501,0.3290337897928033,-0.18180976896929357,-0.9638288050136509,0.9638221260334838,0.36180686700526365,0.20401624879692215,-0.661900435033089,0.13549293861317713,0.6038527809086673,0.9219524552631377,0.26883535457722707,0.7717826181395877,-0.9011824036589684,-0.6896060657310443,0.7698157760597957,0.7880154833912898,0.20461581008510876,-0.1577678189649493,-0.9758708772671275,0.1984737164533077,0.9251144948470909,0.8855993641085615,0.2527359902321096,-0.4341983418709726,0.41092614351600365,0.8516474871859576,-0.12725663708275659,0.7531626514759455,0.5482748053132465,0.6459726896980591,-0.46212351744102576,-0.6509456526014711,0.7622850375611541,-0.7516028234580037,-0.025968921697124725,-0.6571309782292795,0.016655841717593267,0.5379339409736592,0.6571607921946434,0.1966357154073728,0.6759771021556198,-0.9991165510882257,0.13706586335545867,0.6012763723417851,0.5851880227492912,-0.9905205522729724,-0.1368391989875941,0.47470341220924417,-0.4461465293538006,-0.0484892982257934,0.7496559065599995,0.6261430467101174,-0.6126730799293146,0.08397144718702454,0.669217556062446,0.5930234220225532,-0.9814580199642265,-0.37980757676995724,0.947299084402204,0.06156657142700794,-0.18335737524049678,-0.9535991564273426,-0.4083516767567835,0.5066209918300544,0.10251111242042654,0.8836165968776337,-0.6767374949439892,-0.7205663583888212,0.8470306829974015,0.7048953861506286,0.7298157810703114,-0.00796071012872912,-0.5525283736469926,0.9159386191785415,0.17357069815106363,-0.5269537823289601,0.9559228124171368,-0.692666034697214,0.5560176958450305,-0.49926888520082646,0.2701165806931092,0.6784880415363035,0.41522774108857163,-0.35624086859126114,0.33777086163320114,0.5665718498283405,0.8470869968165868,-0.34306229542870004,-0.03227128756987574,-0.5008238261033212,-0.13610922226466193,0.8675213224358009,0.2788755167289889,-0.09931952568200908,-0.6820982573266228,0.7793856109753734,-0.990439790303697,-0.9501594015474327,-0.5156145773939397,0.6500418286790841,-0.7904754002622523,0.10279185683017289,0.8064258959462371,-0.21868635655538227,-0.9618347510838947,0.6409190942792158,-0.971481186819283,0.962531510788611,-0.6754712719698494,-0.4896911880596929,0.8515561197706669,-0.14032758800036693,0.6047990805930945,-0.30423838907889666,0.017404401586418095,0.05280939652220229,0.9091751368503154,-0.003748260154304517,-0.8246376238587838,0.5679073306090956,0.46035484032561236,0.21221495143620084,0.036696680270347226,0.3211059260158877,0.22257044266319204,0.014678379765968641,0.9196924993991946,0.4621711820670418,-0.40275677148564915,0.7397914733450457,0.20771154882479514,-0.8446936625280143,-0.7962781385578803,-0.7838458728603882,-0.8156513012143483,-0.12806037129754133,-0.43988595611794823,0.48498638134383776,0.20732503177682093,0.5665933955114864,0.2714908817946222,0.24796557695996957,-0.19200947134242619,-0.9082366737800716,-0.23094414361668325,0.9662712549288808,-0.13755763196665494,0.39160117913341286,0.9071267462992958,0.13481447986359996,0.42886142041608144,-0.4538522880527367,-0.0327317586187752,-0.2927415633784246,0.2067651182895398,0.40176782421015994,0.5934036270314722,0.049486120765356745,0.8171663405305238,-0.24004117071827946,-0.8877521750173654,0.7401184779462973,0.8901332503062944,-0.9970921104296946,-0.16307598024602132,-0.7747769763585206,0.948731553586238,-0.1358028497190663,-0.05833269006879982,-0.20272276647536436,-0.012492794682854025,-0.004089715157316913,0.9085483087641302,-0.2442552053381415,-0.4205165480886217,0.2718775865041001,-0.2239561981016046,-0.8520768087431733,-0.9204202442074685,0.18672057446974333,0.6318061643782265,-0.31379149837154696,0.06589311354462235,0.855214113808362,0.8640764974355493,0.67798538483236,0.7102775815263711,0.17433574662121643,0.9122681966404862,-0.7288305595509605,0.9096296562820136,-0.9842615236357026,-0.4423078172840238,0.13976972202586535,-0.1522300275191305,-0.4872960078896883,0.05413354637976102,-0.968191053574844,-0.7557093820505663,-0.9380040390195419,0.43962514061528024,-0.6060065832103996,-0.5830901906086969,-0.7032293636053053,-0.7142381953451653,-0.5285905152435477,0.8797406440102622,0.5427148474577378,0.6946638460480796,0.09572007318720588,-0.11515465051684692,-0.7092780628078237,-0.510425929290243,0.36081783078846263,-0.9279052896900801,-0.933666336397314,0.8237667331255887,-0.520879585841427,-0.5511550746467057,0.2022106251739039,-0.8281642567036127,0.7153400640548201,0.2526923606460562,0.31512780896073855,3.548192986245864,0.6701043977825241,0.6819772283658923,0.477865634783255,0.07739214929721139,0.3670754480063203,0.8986481216275324,-0.6610819714854121,-0.8807713456083728,0.37625834491610033,0.5389957051284123,0.6655126780244874,-0.08255679327338294,-0.3593124494608433,0.565959374145563,0.2167661644256116,7.611161303553359,0.2402166523889322,-0.883293868305237,0.12438609025771745,-0.5097657267820133,-0.9904494131946652,0.20910178238314484,0.8513693374313467,-0.9335614208756822,-0.5909975503868148,-0.27229971124978697,0.9265364023783322,-0.4205480123576676,-0.430203466555644,-0.9493203687242526,0.8818408982362886,5.840965634943384,-0.665547269031832,-0.2757677014442704,-0.5320919386047428,-0.6957831986693753,-0.13238774462059388,0.36242528012591846,0.32127873339363777,0.024135922480680774,0.014388397567159482,-0.7269976225596895,0.506509299600076,0.3264496014224174,-0.6821171771456426,-0.2304852897194944,0.7555493666886296,3.9013954794019226,-0.6566411858846821,-0.492056811208177,0.5989585161566698,-0.2987387753934796,0.6981915587614442,-0.5281107783892754,-0.5089250476696552,0.8308968617195122,0.8746882355653446,-0.998448199517379,-0.2243005468291828,0.1640621768601549,0.84370870271032,-0.10671604641777642,0.5001811981081442,1.1476002411714572,-0.8151695797115733,0.6591117016535132,0.8357816908910413,0.8572160990567985,0.3312612625076389,-0.5909795875017889,-0.2911654804029066,0.8837063099386309,-0.6678462216850165,-0.8920188577705813,0.3692823211231506,0.7266346237482508,0.4377842627137729,-0.3077566107720405,0.9678749594180827,-0.5173572463938749,0.8994492090040436,0.13209347158494092,-0.9257922375863856,0.2147003929229682,-0.6107885299819464,-0.2851702876657759,-0.8399874524347418,0.7759337292210732,-0.16947655687294577,0.9438757715574841,-0.41898495731139096,0.49213375206194376,-0.20773043371921643,0.6642717650459358,0.02320199059928125,-0.15082485726372574,-0.10576132032981944,-0.7003052179889365,0.3785049286600255,0.22098952086247722,0.7068695414412076,0.6724089258026931,-0.9608306197536665,-0.5703172885874866,-0.4693624744124208,0.03333036297297021,0.10972459371150055,-0.6913422066250767,0.1154009283562538,0.9524909612185143,-0.7813833599276411,1.509684928515449,-0.3682658291885844,0.09772780272599745,-0.030824762269584857,0.6361901154510063,-0.9756776916191715,0.3166597224458174,-0.45949834392012945,-0.7513170259331955,0.8912037875099522,-0.614300410676395,0.7758186608798217,-0.5922765152513783,-0.8779760769645044,-0.7790931981339193,0.9513133414725538,6.605132944436862,-0.00980189722934599,-0.9767455507235432,-0.12733911670768028,0.9040485005830249,0.1647498296266341,-0.8497690919050223,0.6291181007989892,0.8392416361714821,-0.57433460173323,-0.7043644279492556,0.9095472038314172,0.8659581099914591,0.8491941703758342,0.48793928702482997,0.49344320051281465,5.8598342824416205,-0.017928266369057533,0.49737416272248164,0.33225359529056747,0.1221342490703343,0.4957135494585192,-0.4226976007978502,0.5336954429107793,-0.543775759527999,0.344086388502987,0.8089758349295985,-0.6662745324514852,0.4874441566384362,-0.9211435833940901,-0.6423509975005064,-0.3623579566763977,6.124340897240434,-0.2416714896139851,0.45317574513226444,0.19101893769675618,0.15289983491149145,-0.0595358406155031,0.8508929954746852,-0.7833608613792036,-0.28355203443738847,0.807298097749717,0.1427790969113572,0.13494986938728512,-0.47614723794130265,-0.5315562087492299,0.6354334169352399,0.13363540121264839,0.5553727451562733,-0.07269111394876415,-0.07007636086624751,0.33700244285511655,0.6365053534762437,-0.11687007972713936,-0.7729830510868865,-0.5144660051467197,-0.4057133921593779,0.08232889304977661,0.287247603725952,-0.8120510828175507,-0.1025164638001993,-0.24207506616404598,-0.2505913720243186,-0.6395569585794227,0.577095719994025,-0.1484678012508206,0.5516830720779262,-0.3909474612650831,0.9033092467157406,-0.8495018297565124,0.48062526294264374,0.8019241464324816,-0.010879672475875676,0.4240307394038968,0.6754470641121704,-0.4207759861651326,0.8331818811832536,-0.2885874463306247,-0.00504751376817464,-0.5546973760652016,0.46532309166789143,-0.06055785636325217,0.8872319763862182,-0.24786454349854,-0.1940750778577327,-0.799792411820223,-0.24518247484181876,0.0640194381857393,0.3282875889641743,-0.503035592986629,-0.4892417997499682,-0.29599802279090237,0.534112689806018,-0.4167622920792914,-0.1419576735997563,-0.6461973927004863,-0.352296198550055,-0.9727049354283667,0.022651049474119,-0.9045720897035195,-0.8800227663118242,-0.6093507899774621,-0.8374272790236571,-0.3772200719597225,0.7589332190943208,0.8808314528373178,0.6039278832303827,-0.9360688386257547,0.7919231626950247,-0.7917779238638021,0.5149239877015794,-0.4777857976452088,-0.5071604977104308,0.7277127959216625,0.3989741050141431,0.875328659561547,0.14151734379949232,0.28093400793948065,0.6971649138746556,-0.033028909207790336,0.9956119454203372,0.36987021447462154,-0.12086354827965085,0.5028785245024445,0.8033134394998653,-0.3580568485138529,0.4404545905102406,-0.6575797118192026,-0.46026218722912826,0.7208178294659846,-0.4437756096723784,-0.05174892599782355,-0.20313836267515528,-0.5358909660636728,-0.3475677790804994,0.5250750615297848,0.09557573401363406,-0.82793568033041,-0.8513571822741753,0.3234856629942122,-0.7751422667013461,0.02488142605296728,0.5418612707190087,-0.4547768734846239,-0.08147881295243109,-0.5010492424988752,0.4235527203648739,-0.14097841627046237,0.9768557998319174,-0.7326366501833366,0.1886119738294023,-0.45361433931435047,-0.6111053673340744,-0.9919412355692538,-0.9772450093335849,0.33741282256829264,0.5077952913989827,-0.5290747005603131,0.8462851820577213,0.5838180015408772,-0.27335792520513014,0.4824603596589889,0.43485152778428016,0.5675452686961313,0.8459866689437134,-0.5139763902190815,-0.7858706762690797,-0.49140111268764153,0.5113983760520031,0.9869299967031553,-0.10580487782308234,-0.06411728573413455,0.5115701165996922,-0.896448793928453,0.5374461784467115,-0.11247215126506216,-0.7298192018182934,-0.4661209264195414,0.5402006256304985,0.09438678101460707,-0.48016411575352214,-0.11131053537889168,0.8696463566474717,-0.46685621494103513,0.9091810893988395,0.1557994839749981,0.6336480443828725,-0.589178518054339,0.8393813130891217,0.5439024397944352,-0.8714619225971587,-0.3581900066937136,-0.8782975130448776,0.7712889147056488,-0.8259693914562541,0.7545047092570412,-0.8362556299989043,-0.24088341745169617,0.7937111754650077,-0.5616386185448692,-0.5841022551742543,0.2954131158641373,0.9159960077440297,-0.07034476954296964,-0.4857888582730857,0.8125729931088126,0.1749703261055584,0.740562228960205,0.3796579034460812,0.6481395808078891,0.18978844710532528,-0.8153475219365871,-0.39797925641287235,-0.16084077941600272,0.10551777434248888,0.2042357540878088,0.2386632775054225,0.5577784548555313,0.6456435560932989,0.5888506654838424,-0.286175426916333,-0.4042045194829208,0.023376011024743848,-0.8291617982242382,-0.6297505318625156,-0.8027134907814688,0.9170798172132584,0.5954922171920496,-0.2595535186089416,-0.21925473064300227,0.7937304747979947,0.8308884922472777,0.3954570713115557,0.030832646510841055,0.3446436560912711,-0.9248672943497988,0.11516003123328256,0.16133450147639428,-0.6958862102460888,0.9721561517120527,0.5659271920362619,0.13002432488022841,0.425470823538008,0.2374965211840525,0.6125008145813295,0.8722893170630976,-0.1459108983048858,0.8128854904976168,0.14008260917318593,0.707056648346545,0.40813879177273926,-0.807780780833767,0.9805498742392227,-0.6253498657775978,0.48079883307361926,-0.9083055981731891,